{"initial_layer": {"0": {"weight": [[0.10277540981769562, 0.07211267948150635, -0.2589273750782013, -0.03543642908334732, -0.20089487731456757, 0.1380883902311325, 0.16527050733566284, 0.08565325289964676, -0.055080119520425797, -0.031533870846033096], [-0.14643564820289612, 0.17022156715393066, 0.2048412710428238, -0.06540662795305252, -0.26035287976264954, 0.14163237810134888, 0.04484020918607712, -0.1977350264787674, -0.2122827023267746, -0.13057805597782135], [0.11136604845523834, -0.22460685670375824, 0.005568365566432476, 0.13689446449279785, -0.0776626467704773, 0.10380135476589203, -0.11410821229219437, 0.25630858540534973, -0.2866217792034149, -0.3404525816440582], [-0.1265648603439331, 0.1518033742904663, -0.22089523077011108, 0.01733638159930706, 0.01636601611971855, 0.3360075056552887, -0.29240018129348755, -0.03944571316242218, -0.21712443232536316, -0.23887395858764648], [-0.06958451122045517, -0.03880029916763306, 0.0163192767649889, -0.11780941486358643, -0.14407388865947723, -0.14781831204891205, 0.03969614580273628, 0.03240802884101868, -0.1638791412115097, -0.027951139956712723], [-0.031247343868017197, 0.13117843866348267, 0.14335620403289795, 0.059299398213624954, -0.175089031457901, -0.21402934193611145, 0.16591860353946686, 0.13121110200881958, 0.07086921483278275, 0.11447829008102417], [0.07745783030986786, 0.2609516680240631, 0.15456879138946533, -0.05358728766441345, -0.1829119324684143, 0.13536520302295685, 0.21461498737335205, -0.06718918681144714, -0.3249257802963257, 0.2645988166332245], [0.3139236867427826, 0.022008385509252548, 0.17109811305999756, -0.09673601388931274, 0.0999007299542427, 0.22655579447746277, 0.1672961711883545, 0.11940109729766846, 0.19557325541973114, -0.012358695268630981], [0.07538828998804092, 0.04518129676580429, 0.2690946161746979, -0.1931104212999344, 0.0408218689262867, -0.04659253731369972, -0.13783910870552063, -0.023618385195732117, -0.20826455950737, -0.3220340609550476], [-0.2223294973373413, -0.029318775981664658, -0.09198300540447235, -0.03328273072838783, 0.027694018557667732, 0.25760069489479065, 0.006373355630785227, 0.28022143244743347, 0.10815053433179855, -0.33406776189804077], [0.1375730335712433, 0.005974893923848867, 0.3187635838985443, -0.08436410129070282, -0.18068847060203552, -0.09215951710939407, -0.20173481106758118, 0.35469910502433777, -0.02838854491710663, 0.2738592326641083], [0.2638067305088043, -0.1623990833759308, 0.3500954508781433, 0.13387201726436615, -0.35771116614341736, 0.2539168894290924, -0.08398816734552383, -0.1504615694284439, 0.15396879613399506, 0.15300928056240082], [0.16061939299106598, 0.32723894715309143, 0.1675335019826889, 0.32586270570755005, -0.27389776706695557, -0.08997806161642075, 0.1097666323184967, 0.4049166738986969, 0.18840447068214417, 0.10863244533538818], [-0.221650630235672, -0.039754316210746765, -0.285946249961853, 0.33445727825164795, 0.21302387118339539, 0.02880062907934189, 0.23689308762550354, 0.1712091565132141, -0.26463624835014343, -0.22971586883068085], [0.1719067543745041, -0.1438995897769928, -0.19920915365219116, -0.017159704118967056, 0.29760226607322693, -0.09177794307470322, -0.31590381264686584, 0.15761229395866394, -0.004564105067402124, -0.2856944799423218], [0.24102729558944702, -0.2769685387611389, -0.046757087111473083, -0.28773021697998047, -0.16708940267562866, 0.13048231601715088, 0.29775145649909973, 0.13015559315681458, -0.05256948992609978, -0.2183149755001068], [0.30641043186187744, -0.015135255642235279, 0.20272065699100494, -0.1593671292066574, -0.05288137122988701, 0.01969834975898266, 0.02980032004415989, 0.2922384440898895, 0.3561002016067505, 0.015061790123581886], [-0.19301418960094452, 0.08695011585950851, -0.1765034794807434, 0.2075040489435196, 0.23193418979644775, 0.2348695993423462, 0.0003753204073291272, 0.06291192024946213, -0.25722652673721313, -0.11339618265628815], [-0.1288595348596573, -0.2440442442893982, -0.009241585619747639, -0.1857464462518692, -0.13548576831817627, -0.04146292433142662, 0.26473119854927063, 0.06087896600365639, -0.09831304848194122, -0.2639375329017639], [-0.25317656993865967, -0.06075291708111763, 0.02278243564069271, 0.21389362215995789, -0.2502688765525818, -0.1809828132390976, 0.20747002959251404, -0.1343877613544464, -0.007487497292459011, -0.29807573556900024], [0.12977172434329987, 0.05598912388086319, -0.4024289846420288, -0.10062329471111298, 0.11290214210748672, 0.2146855741739273, 0.1729912906885147, -0.11541099101305008, -0.08842623978853226, -0.06835298985242844], [-0.0925171822309494, -0.22373545169830322, 0.1131049394607544, -0.11380551010370255, -0.19723227620124817, -0.17311593890190125, -0.2609175443649292, -0.00839982833713293, 0.3175414204597473, -0.1290319263935089], [0.13214974105358124, -0.0711107924580574, 0.3483235239982605, -0.004487842787057161, -0.10501065850257874, 0.02486930601298809, -0.1915210485458374, -0.10560047626495361, 0.11391067504882812, 0.2540380656719208], [0.10998518764972687, 0.08470837026834488, 0.1172281876206398, 0.01775025948882103, 0.18266236782073975, -0.19925318658351898, 0.1363377720117569, -0.19152973592281342, -0.0060592531226575375, 0.038060225546360016], [-0.31059518456459045, 0.1731479912996292, 0.020910631865262985, -0.06443265080451965, 0.11277489364147186, 0.028762653470039368, -0.05606430023908615, 0.027747485786676407, -0.3355805575847626, 0.05671310797333717], [-0.03429841622710228, 0.04757068678736687, 0.14042264223098755, -0.21544066071510315, 0.15696783363819122, -0.06842228025197983, -0.06813759356737137, 0.2587943971157074, 0.25290778279304504, -0.14198684692382812], [0.3182385563850403, -0.1299496293067932, 0.09652891755104065, 0.04635847732424736, -0.009644616395235062, 0.15754300355911255, -0.047365106642246246, -0.05564124882221222, -0.27373069524765015, 0.24727033078670502], [0.06028079241514206, 0.07933950424194336, -0.1525096893310547, -0.23247411847114563, -0.23629866540431976, 0.1317123919725418, -0.17991213500499725, -0.22555147111415863, -0.06469260156154633, -0.0743592381477356], [0.006170107517391443, -0.21014954149723053, -0.00906835775822401, 0.3609530031681061, -0.027190543711185455, -0.23286305367946625, -0.09411247074604034, -0.13703685998916626, 0.23660503327846527, -0.38465264439582825], [-0.20293588936328888, 0.16399550437927246, 0.08002595603466034, 0.27180010080337524, 0.2422521412372589, -0.31797561049461365, -0.223259836435318, -0.08205966651439667, 0.027509592473506927, -0.17545509338378906], [0.27557751536369324, -0.02585458569228649, -0.174727663397789, 0.1552521139383316, 0.19740085303783417, 0.33198434114456177, -0.0680818036198616, 0.14746855199337006, 0.18386310338974, 0.21466673910617828], [0.06373243033885956, 0.31004899740219116, -0.20841751992702484, 0.08627693355083466, -0.3177100419998169, -0.20895351469516754, 0.05719582363963127, 0.2102295160293579, 0.34769850969314575, -0.10193444043397903], [-0.1641663759946823, -0.031168824061751366, -0.3385814130306244, -0.19955188035964966, 0.147444948554039, -0.05658824369311333, 0.31840404868125916, 0.12461895495653152, -0.00016557745402678847, 0.04926256462931633], [-0.1622171849012375, -0.05828190594911575, 0.27385085821151733, 0.11765396595001221, 0.1302335262298584, -0.05083345249295235, -0.03036915510892868, 0.29917094111442566, 0.048552967607975006, 0.26368430256843567], [0.26828253269195557, 0.07364432513713837, -0.08823352307081223, -0.252792626619339, 0.09945417940616608, 0.17789694666862488, -0.09155869483947754, -0.00852548610419035, -0.04703274369239807, -0.19322901964187622], [0.1999705284833908, 0.17936888337135315, -0.17757369577884674, 0.17892411351203918, 0.22373344004154205, -0.11791220307350159, 0.20793546736240387, 0.09136641025543213, -0.07767289876937866, -0.29909995198249817], [0.1959390938282013, 0.19210773706436157, 0.25389787554740906, -0.29407331347465515, 0.02828649990260601, -0.21065549552440643, 0.21098467707633972, 0.23886772990226746, -0.16464301943778992, -0.10055579990148544], [0.02185816317796707, 0.29389530420303345, 0.1927957534790039, 0.2167605310678482, -0.08606906980276108, 0.030017245560884476, -0.24714621901512146, 0.2737398147583008, -0.019535928964614868, -0.2862880825996399], [0.25811249017715454, 0.20653356611728668, 0.13094286620616913, -0.10768748074769974, 0.10583345592021942, -0.14759071171283722, 0.24193014204502106, -0.1879442036151886, -0.3577907085418701, 0.14423061907291412], [0.12387724965810776, -0.1862708032131195, 0.2060086578130722, -0.040752436965703964, -0.09020096808671951, 0.06397166103124619, 0.2338118851184845, -0.21628154814243317, -0.15815313160419464, 0.33230647444725037], [0.03056831657886505, 0.34963107109069824, -0.018231486901640892, 0.16434282064437866, -0.33109280467033386, -0.04429606720805168, 0.034601353108882904, 0.18710732460021973, 0.06858937442302704, 0.14124447107315063], [-0.3031155467033386, 0.12040559202432632, -0.17605960369110107, 0.24940690398216248, 0.10998950898647308, 0.12183758616447449, -0.060037363320589066, 0.027479028329253197, 0.24401897192001343, 0.16666817665100098], [0.12377816438674927, -0.23877796530723572, 0.22220829129219055, 0.23386366665363312, 0.15670333802700043, -0.09996051341295242, 0.1781904101371765, -0.23885361850261688, 0.22499918937683105, 0.28149890899658203], [0.11126762628555298, 0.1786324679851532, -0.3573864698410034, 0.11736372113227844, 0.018988441675901413, 0.06094202771782875, -0.05434131622314453, -0.137116938829422, -0.01519076805561781, -0.11826851218938828], [-0.22316686809062958, 0.30611684918403625, 0.0359298400580883, 0.14036987721920013, 0.20499664545059204, 0.14242598414421082, -0.092530257999897, -0.2612990736961365, 0.333640992641449, 0.03982709348201752], [-0.15171951055526733, -0.0673551931977272, -0.07655207067728043, 0.13581416010856628, -0.2940230071544647, 0.1872410923242569, -0.052157316356897354, 0.12843134999275208, -0.34548458456993103, 0.3174310028553009], [-0.16627496480941772, -0.058793287724256516, 0.13351355493068695, 0.03903866186738014, 0.09431323409080505, -0.10515709966421127, 0.2990518808364868, -0.2871524691581726, 0.15046310424804688, -0.002371902810409665], [0.1368885040283203, 0.05382603406906128, -0.1412208378314972, -0.01618879847228527, 0.3336833119392395, -0.25793537497520447, -0.11769060045480728, 0.04372050240635872, -0.0869445949792862, -0.1855560839176178], [0.16511225700378418, 0.20882980525493622, 0.2605660557746887, 0.07878834009170532, -0.08099787682294846, 0.2370149791240692, 0.20995832979679108, -0.18628869950771332, 0.17335215210914612, -0.46369004249572754], [0.025061383843421936, 0.14137160778045654, 0.11848971247673035, -0.1762315034866333, 0.2126392126083374, 0.261361688375473, -0.011097981594502926, -0.08071631193161011, -0.22778189182281494, -0.11455921828746796], [0.19029924273490906, 0.014967297203838825, 0.13423064351081848, 0.26780739426612854, -0.046525146812200546, -0.3523247539997101, 0.25048473477363586, 0.18751102685928345, -0.28029704093933105, 0.16969002783298492], [0.1642736941576004, 0.2558533847332001, -0.24177603423595428, -0.023704031482338905, 0.09679841995239258, 0.24148450791835785, -0.15027208626270294, -0.22443698346614838, -0.055412668734788895, 0.3046391010284424], [0.2689274549484253, 0.17665214836597443, 0.08548327535390854, 0.13950106501579285, 0.032845862209796906, 0.11897266656160355, -0.27122655510902405, 0.11827978491783142, -0.11570344120264053, -0.15046849846839905], [0.12316454201936722, -0.17381443083286285, -0.29213038086891174, -0.11262169480323792, 0.11823447793722153, 0.1930103302001953, -0.10557430237531662, -0.015852781012654305, 0.0629129409790039, 0.33460983633995056], [0.32633379101753235, 0.3135530948638916, 0.17844906449317932, -0.12994201481342316, 0.263965368270874, -0.054817602038383484, -0.28407466411590576, -0.013401282019913197, 0.09354116022586823, -0.24936363101005554], [-0.33373600244522095, 0.08980628848075867, -0.11647427827119827, 0.09235773235559464, -0.12197273969650269, -0.0163874551653862, 0.08922336995601654, -0.04866839572787285, 0.023824216797947884, -0.09495323896408081], [-0.08382255584001541, 0.22122584283351898, -0.13373777270317078, 0.2728855311870575, -0.03202579542994499, 0.20741337537765503, -0.08374477922916412, -0.20985084772109985, -0.29053768515586853, -0.08870101720094681], [-0.3365785479545593, -0.14862966537475586, 0.0464850477874279, -0.04349706694483757, -0.19648848474025726, 0.04740915074944496, 0.2885047197341919, 0.34751206636428833, -0.11903838068246841, 0.29257121682167053], [0.25066450238227844, -0.10699676722288132, 0.11545225232839584, 0.19096636772155762, 0.23834186792373657, -0.028199514374136925, 0.00460009602829814, 0.18935441970825195, -0.12702560424804688, -0.26517391204833984], [0.16733944416046143, 0.019697843119502068, 0.20972342789173126, -0.017214778810739517, -0.23872271180152893, 0.26386743783950806, -0.00839836522936821, 0.33318087458610535, -0.14028441905975342, 0.13015729188919067], [-0.29589247703552246, 0.17704364657402039, -0.31297820806503296, -0.16648200154304504, 0.10214769095182419, -0.10827020555734634, -0.2626495957374573, -0.09877784550189972, 0.1645897924900055, 0.1968076229095459], [-0.07931013405323029, -0.12831681966781616, -0.20786210894584656, 0.28631648421287537, -0.18958324193954468, -0.015885403379797935, 0.18550080060958862, 0.1449364721775055, 0.28436198830604553, -0.12445094436407089], [-0.22697268426418304, 0.11917509138584137, 0.016372570767998695, 0.013347558677196503, -0.20101068913936615, -0.00357644259929657, -0.201683908700943, 0.284208208322525, 0.18635141849517822, -0.38246312737464905], [-0.1115875169634819, 0.15882349014282227, -0.14624659717082977, -0.17523838579654694, 0.1680879294872284, 0.12761133909225464, 0.3786643147468567, 0.00428068358451128, -0.1654892861843109, 0.0607624389231205], [-0.03580882027745247, 0.2729407548904419, 0.1725042760372162, 0.21972975134849548, 0.01845615729689598, -0.1901215761899948, 0.05177155137062073, -0.19699111580848694, -0.17669694125652313, -0.29373249411582947], [0.057314466685056686, 0.09124100208282471, 0.04142078384757042, -0.2758612334728241, -0.17352145910263062, -0.1117175742983818, 0.14450523257255554, 0.21431048214435577, -0.13937000930309296, -0.2406315803527832], [-0.10739017277956009, 0.3037041425704956, -0.06298848241567612, -0.24053645133972168, 0.017296211794018745, -0.08859052509069443, -0.1992487758398056, 0.18533915281295776, -0.13276329636573792, -0.06677870452404022], [0.17084531486034393, 0.1741398125886917, 0.0753297507762909, -0.04591371864080429, 0.11534394323825836, -0.10810008645057678, 0.28111815452575684, 0.02056315168738365, -0.294554203748703, 0.3529646694660187], [0.0770774781703949, -0.12336058914661407, 0.1407879739999771, 0.15847323834896088, 0.23511095345020294, 0.06640370190143585, -0.0013826725771650672, -0.3413594365119934, 0.15470929443836212, -0.3418147563934326], [0.21892130374908447, -0.03191857412457466, -0.12412329763174057, 0.0587807223200798, 0.19655871391296387, 0.1337473839521408, 0.2659870982170105, -0.2835066318511963, -0.3181157410144806, 0.019947171211242676], [-0.11827606707811356, 0.26894891262054443, -0.25911247730255127, 0.019973790273070335, 0.11165223270654678, -0.30759647488594055, -0.14801131188869476, 0.006550653371959925, 0.07436878234148026, -0.011666624806821346], [0.032900698482990265, -0.012716217897832394, 0.06465424597263336, -0.23748555779457092, 0.30258435010910034, -0.3214337229728699, -0.14151154458522797, -0.20218203961849213, 0.21139323711395264, -0.28045153617858887], [0.17988787591457367, 0.19607406854629517, 0.2829853892326355, 0.3222082555294037, 0.1475570797920227, 0.1919400542974472, 0.07777442038059235, 0.07412294298410416, 0.26735079288482666, 0.04176995903253555], [0.09856575727462769, 0.29978787899017334, -0.019547870382666588, -0.11905457824468613, -0.3190004527568817, 0.1266985535621643, -0.2799839377403259, -0.09702423214912415, 0.1819853037595749, -0.281774640083313], [-0.4402887225151062, -0.19820649921894073, 0.10736855864524841, 0.19292300939559937, -0.049031130969524384, 0.024879474192857742, 0.13934892416000366, 0.24641840159893036, 0.0486593171954155, -0.28642597794532776], [0.1274493783712387, -0.1020561009645462, 0.23416268825531006, -0.19202680885791779, 0.17219747602939606, -0.024722471833229065, -0.2762115001678467, -0.024816641584038734, 0.06934939324855804, -0.43317562341690063], [-0.31787756085395813, 0.13757269084453583, -0.03515813499689102, 0.25678741931915283, -0.09714869409799576, -0.20655030012130737, 0.08546879887580872, 0.3026466369628906, -0.08807762712240219, 0.22269859910011292], [-0.17729224264621735, 0.15236452221870422, -0.19257602095603943, -0.14504142105579376, -0.23055146634578705, 0.1216844692826271, 0.03813869506120682, 0.15757745504379272, -0.011650688014924526, 0.06174807623028755], [0.032278869301080704, -0.14992912113666534, 0.27473434805870056, -0.05214102938771248, 0.03225399926304817, -0.15599465370178223, 0.1862574815750122, 0.1862417757511139, -0.18113112449645996, -0.04828869178891182], [-0.010301237925887108, 0.13185878098011017, 0.012316124513745308, -0.3800024390220642, 0.17398551106452942, 0.012819511815905571, 0.11857348680496216, 0.271549254655838, -0.3411605954170227, -0.13031937181949615], [-0.2150844782590866, -0.24225002527236938, -0.13125096261501312, -0.08085523545742035, -0.1765558123588562, 0.1317194253206253, 0.1358107179403305, 0.16383576393127441, -0.10135303437709808, -0.3360566198825836], [-0.08348079025745392, 0.1400894671678543, 0.2953103184700012, 0.010683095082640648, -0.05975509062409401, -0.10506138205528259, -0.10418350994586945, -8.587189768149983e-06, 0.19588156044483185, 0.3380258083343506], [0.15293343365192413, -0.0014434491749852896, -0.22472679615020752, 0.18452973663806915, -0.03233819082379341, 0.2327551394701004, 0.014361553825438023, 0.051241323351860046, 0.03778306394815445, -0.2039080113172531], [-0.13963961601257324, 0.06600644439458847, 0.11115523427724838, -0.23831674456596375, 0.12387780100107193, -0.18584653735160828, 0.31203752756118774, -0.1178610771894455, 0.021158093586564064, -0.2876877784729004], [0.11612854152917862, -0.2713087201118469, 0.1718285232782364, -0.11423395574092865, -0.1802266389131546, -0.28538286685943604, -0.15450932085514069, -0.31583869457244873, -0.25087371468544006, -0.05520975589752197], [-0.3257720470428467, -0.08122217655181885, -0.06710674613714218, 0.027147842571139336, 0.17219741642475128, 0.23325660824775696, -0.23570555448532104, 0.028807299211621284, 0.18440401554107666, -0.25029250979423523], [-0.30592650175094604, 0.059112854301929474, 0.04938153922557831, 0.2618893086910248, -0.30211955308914185, 0.19844801723957062, 0.19633537530899048, 0.22961418330669403, 0.144370898604393, -0.29624173045158386], [0.3248709440231323, 0.09773053973913193, 0.1894853711128235, 0.26485440135002136, 0.24487945437431335, -0.16708260774612427, -0.04237615689635277, 0.018450144678354263, -0.15868066251277924, -0.09206131100654602], [-0.14175920188426971, -0.1473143994808197, 0.20936208963394165, 0.18290188908576965, -0.23515821993350983, -0.2042921632528305, -0.2964407503604889, -0.16968652606010437, -0.08408761024475098, 0.0050060260109603405], [0.30770131945610046, 0.024001609534025192, -0.17929288744926453, -0.16944758594036102, -0.054825905710458755, 0.17130610346794128, -0.37569159269332886, 0.0944514200091362, 0.19534602761268616, 0.11757354438304901], [0.0007578762015327811, -0.26870521903038025, 0.13538092374801636, -0.2900004982948303, 0.21581409871578217, 0.13044877350330353, -0.3329598605632782, -0.18782199919223785, 0.252047598361969, -0.19828739762306213], [0.08146516978740692, 0.04270442947745323, 0.07737679034471512, -0.1815824806690216, 0.22428162395954132, -0.19367747008800507, 0.15442241728305817, 0.15172958374023438, 0.3139205276966095, 0.21142439544200897], [-0.13012659549713135, -0.278883159160614, 0.002711532637476921, -0.1745605766773224, 0.10845713317394257, 0.09697012603282928, -0.029758242890238762, 0.2651217579841614, 0.37017080187797546, -0.23263418674468994], [0.20657147467136383, -0.022271092981100082, 0.28870198130607605, -0.08211607486009598, 0.08279980719089508, 0.044689685106277466, -0.32180890440940857, 0.07258445769548416, -0.1155124232172966, 0.178706094622612], [0.15353897213935852, -0.039267029613256454, -0.12367752939462662, 0.20246759057044983, 0.003431684337556362, -0.07044326514005661, 0.06127716228365898, -0.12200082838535309, 0.20317357778549194, 0.12658840417861938], [-0.21155281364917755, 0.17124372720718384, -0.24857309460639954, -0.225021094083786, 0.04510198533535004, -0.1698780059814453, 0.3188488185405731, 0.035200975835323334, 0.05108216777443886, -0.229577898979187], [-0.1090044304728508, 0.16386497020721436, -0.1959775984287262, 0.19982177019119263, -0.12717567384243011, -0.4450424015522003, -0.03784393146634102, 0.06834892183542252, 0.14903362095355988, -0.16626538336277008], [0.1809442788362503, -0.14734670519828796, 0.03587658703327179, 0.22314074635505676, 0.1321171671152115, 0.036435797810554504, -0.1440148800611496, -0.14983868598937988, -0.1412798911333084, -0.2510627210140228], [0.35689178109169006, 0.17158594727516174, 0.054040297865867615, 0.06758885085582733, 0.27771836519241333, -0.01625504158437252, 0.2563282251358032, -0.16190290451049805, -0.10775437951087952, -0.18667484819889069], [0.11607158929109573, -0.20876240730285645, 0.09693929553031921, -0.2762910723686218, -0.26971501111984253, 0.08943462371826172, 0.06979444622993469, 0.27784085273742676, -0.10244373977184296, 0.08511464297771454], [0.012843286618590355, -0.23992379009723663, 0.11570588499307632, -0.24101874232292175, -0.18450026214122772, 0.14028865098953247, -0.2002713978290558, -0.10315953940153122, 0.19232574105262756, -0.11627629399299622], [0.24021746218204498, -0.3259868621826172, 0.18981978297233582, 0.3148024380207062, 0.21199846267700195, 0.05204874649643898, -0.27704745531082153, -0.09707964211702347, -0.24969032406806946, -0.35815873742103577], [0.0014987722970545292, 0.22478064894676208, -0.12728974223136902, 0.17343948781490326, -0.04657379537820816, -0.0065461620688438416, 0.11754430085420609, 0.06586094200611115, -0.2620410919189453, -0.05411504954099655], [-0.22208639979362488, 0.24032221734523773, 0.07372642308473587, -0.26184922456741333, 0.055573463439941406, 0.043480996042490005, -0.08114296942949295, -0.04634103551506996, 0.21789652109146118, -0.054812703281641006], [0.16075488924980164, 0.009564853273332119, -0.2608799636363983, 0.17957323789596558, 0.03222716227173805, -0.042135484516620636, 0.07017654925584793, 0.1255355328321457, -0.061476510018110275, -0.03664858266711235], [0.2714102566242218, 0.21735329926013947, -0.24973158538341522, 0.26015016436576843, 0.19155271351337433, 0.11117769032716751, -0.15183143317699432, 0.06388508528470993, 0.22919893264770508, 0.20884142816066742], [-0.02172311767935753, 0.11986816674470901, 0.2525602877140045, 0.13398896157741547, -0.09362616389989853, -0.29655757546424866, -0.1320008635520935, 0.297036349773407, 0.21883803606033325, 0.06480589509010315], [0.2641147971153259, 0.15112844109535217, -0.28811994194984436, -0.23326227068901062, 0.04408030956983566, 0.21133241057395935, 0.1427808403968811, 0.15757322311401367, -0.12360584735870361, 0.08460405468940735], [-0.15242889523506165, 0.05883396789431572, -0.2586275339126587, 0.17785152792930603, -0.17653173208236694, -0.16122925281524658, -0.05049930885434151, 0.30227628350257874, 0.3089260756969452, -0.3344753384590149], [-0.020319228991866112, 0.024119416251778603, -0.26991474628448486, -0.08326537162065506, 0.024842608720064163, 0.3067792057991028, 0.008133755065500736, -0.19144345819950104, 0.01819177158176899, -0.21471990644931793], [-0.20302070677280426, -0.17055672407150269, 0.2562553882598877, 0.20500662922859192, -0.27178439497947693, -0.29689523577690125, -0.3327266573905945, -0.237691730260849, 0.28427061438560486, -0.25730279088020325], [0.1070626899600029, -0.301345556974411, 0.13060583174228668, -0.1506199985742569, 0.07749737799167633, 0.2198687046766281, -0.2519368827342987, 0.16862036287784576, 0.3383164703845978, -0.27063095569610596], [-0.29515424370765686, 0.035604942589998245, -0.13113491237163544, -0.019651884213089943, 0.2543275058269501, 0.1253330409526825, -0.06151276081800461, -0.24437931180000305, -0.15036042034626007, 0.18177032470703125], [-0.13044606149196625, -0.20215049386024475, -0.02736424282193184, 0.14747589826583862, 0.10265229642391205, -0.2598083019256592, -0.11911287158727646, 0.2520410418510437, -0.1460847407579422, -0.23934394121170044], [0.08810359239578247, 0.30542558431625366, 0.28701797127723694, 0.15343596041202545, -0.05380862206220627, -0.25724244117736816, 0.11075109988451004, 0.2368600219488144, -0.20236656069755554, -0.13553203642368317], [0.24507246911525726, 0.100223109126091, 0.11464667320251465, -0.17312943935394287, 0.2914639413356781, -0.21157684922218323, -0.3306344151496887, -0.30955806374549866, 0.044284868985414505, 0.26862093806266785], [0.19157493114471436, -0.147926926612854, -0.07686367630958557, 0.18787312507629395, 0.2126687914133072, -0.30780842900276184, -0.02552950009703636, 0.12047789990901947, -0.15570063889026642, 0.3170067071914673], [-0.26721835136413574, -0.2814691364765167, -0.07416458427906036, -0.14365480840206146, 0.19821052253246307, -0.19645720720291138, 0.2738286852836609, -0.2879936397075653, 0.10703007131814957, 0.012739448808133602], [-0.24167759716510773, -0.25723180174827576, 0.1995636373758316, 0.23721590638160706, 0.2623361349105835, 0.1254885196685791, -0.07024277746677399, -0.06158662959933281, 0.14650218188762665, -0.07725303620100021], [0.14751151204109192, 0.269613116979599, 0.27663344144821167, -0.05385572463274002, -0.23511095345020294, -0.29005444049835205, 0.19840744137763977, 0.028842857107520103, -0.09563878923654556, 0.04398220777511597], [-0.021267708390951157, -0.02993903122842312, -0.2774204611778259, -0.08499777317047119, -0.18957141041755676, -0.0520123727619648, 0.36983972787857056, -0.27969807386398315, -0.02599569968879223, 0.08940558135509491], [0.2645856440067291, -0.14309750497341156, 0.19717173278331757, 0.19791068136692047, 0.003659699810668826, 0.06511053442955017, 0.04785546287894249, 0.1255619376897812, -0.15572942793369293, -0.08202864229679108], [-0.005304691381752491, -0.08431197702884674, -0.17535266280174255, 0.059555865824222565, -0.13958334922790527, -0.16713471710681915, 0.031740859150886536, -0.3975623548030853, 0.18477492034435272, 0.16614295542240143], [0.17673005163669586, -0.27249449491500854, -0.03659382089972496, 0.33693256974220276, 0.1372440904378891, 0.2462996542453766, -0.2769252359867096, -0.26675945520401, -0.3152308166027069, 0.20810122787952423], [0.2324037253856659, 0.29424306750297546, -0.16326351463794708, 0.15884707868099213, -0.23273354768753052, -0.022761467844247818, -0.2657274603843689, -0.08775238692760468, 0.03176935762166977, 0.24837060272693634], [0.1642923355102539, -0.12881600856781006, -0.23875074088573456, -0.09861379861831665, -0.13447602093219757, -0.22671149671077728, 0.2968786060810089, 0.005637292750179768, 0.07072349637746811, -0.09227834641933441], [-0.33197668194770813, -0.21996252238750458, -0.0778026282787323, 0.3032560646533966, -0.00823296420276165, 0.16045820713043213, -0.24494358897209167, -0.009316622279584408, -0.16917629539966583, 0.26148372888565063], [-0.16565324366092682, -0.2392236292362213, 0.2821017801761627, -0.1292029768228531, -0.15146282315254211, 0.07609070092439651, -0.18202124536037445, -0.13096046447753906, 0.2284514605998993, 0.03691776096820831]], "bias": [0.14672262966632843, -0.13771356642246246, -0.3156205117702484, 0.30112677812576294, 0.18917126953601837, 0.034460440278053284, -0.1668384075164795, 0.003679121844470501, 0.12881481647491455, -0.0586644783616066, 0.25098830461502075, 0.21746276319026947, -0.28655362129211426, 0.22868971526622772, -0.2855038642883301, -0.14646710455417633, -0.14701327681541443, -0.20903988182544708, -0.05832964926958084, -0.30937764048576355, -0.12325283139944077, 0.25944724678993225, 0.1541309654712677, -0.016326915472745895, 0.0442039892077446, -0.1878662109375, 0.14462390542030334, -0.06868530064821243, -0.10502460598945618, 0.10115770995616913, 0.03548793867230415, 0.044797543436288834, -0.1781781166791916, -0.03631738945841789, 0.18150471150875092, -0.15228314697742462, 0.023787446320056915, -0.05123697593808174, -0.21775080263614655, 0.0765756219625473, 0.11083003878593445, -0.1755555123090744, 0.007658976595848799, 0.04169159755110741, -0.17607612907886505, 0.2622530162334442, 0.1954791247844696, 0.24813175201416016, 0.30136212706565857, 0.25344833731651306, -0.0684148445725441, -0.07918474078178406, -0.10002411901950836, -0.2768191695213318, 0.2797994017601013, -0.3122246563434601, 0.3050171136856079, 0.22979331016540527, -0.038862086832523346, -0.000622727326117456, -0.05283218249678612, -0.2627401351928711, 0.1879325807094574, 0.14585289359092712, 0.23778390884399414, 0.28119686245918274, 0.12315387278795242, 0.006217166781425476, 0.04816383495926857, -0.14597277343273163, -0.0387054905295372, -0.20424385368824005, -0.17593227326869965, 0.26511213183403015, 0.04907921329140663, 0.20513439178466797, -0.2788549065589905, 0.24187088012695312, 0.003334818175062537, -0.019075660035014153, 0.24902759492397308, -0.3054342567920685, -0.0038549492601305246, 0.08799353241920471, -0.17481184005737305, 0.22924518585205078, -0.3027876019477844, 0.17156051099300385, 0.0924697294831276, -0.2986292541027069, 0.012051709927618504, -0.2986373007297516, -0.30229660868644714, -0.2752425968647003, -0.2836277186870575, -0.2900698482990265, 0.19372470676898956, 0.26465708017349243, -0.10392878204584122, 0.0019907099194824696, -0.23128938674926758, -0.23726487159729004, -0.24287067353725433, -0.012716456316411495, -0.28620266914367676, -0.19756154716014862, 0.023348310962319374, -0.27439770102500916, 0.14189070463180542, 0.16123932600021362, 0.12831053137779236, -0.06081606447696686, -0.1510682851076126, 0.01563005894422531, -0.3090946078300476, -0.19416072964668274, -0.15003560483455658, 0.30644091963768005, -0.28509318828582764, 0.17829766869544983, 0.1281159669160843, 0.10639943927526474, 0.23278595507144928, 0.08359093964099884, -0.169462189078331, 0.10091128200292587, -0.06718438863754272, 0.013037577271461487]}, "1": {"weight": [1.019334077835083, 0.9453306198120117, 1.0139747858047485, 0.9594055414199829, 0.9940634965896606, 1.0048431158065796, 0.985131025314331, 0.9333921074867249, 0.9934446811676025, 0.9417582750320435, 1.1373310089111328, 1.0031746625900269, 1.0294485092163086, 0.9944242835044861, 1.0057533979415894, 0.9260873198509216, 1.0167051553726196, 0.9574712514877319, 1.0073912143707275, 1.0199201107025146, 1.0093278884887695, 1.0471599102020264, 1.0328574180603027, 0.9487954378128052, 0.9987156987190247, 1.0560277700424194, 1.015881896018982, 1.0070571899414062, 0.9629085063934326, 0.9213799238204956, 0.9976291656494141, 1.1464112997055054, 1.0300976037979126, 0.9243555068969727, 1.038834571838379, 1.0467956066131592, 0.9999261498451233, 1.066306471824646, 0.9672736525535583, 0.9212656021118164, 1.037580132484436, 0.9005063772201538, 0.9558772444725037, 0.9956604242324829, 0.908340334892273, 0.9730892181396484, 0.98002028465271, 1.0670586824417114, 1.003955602645874, 0.8679985404014587, 1.021462082862854, 0.9337486624717712, 1.1385226249694824, 1.0433766841888428, 1.0301405191421509, 1.1016459465026855, 0.9797733426094055, 1.0172537565231323, 1.005759835243225, 0.9599418044090271, 0.9932270646095276, 1.0463624000549316, 1.0268417596817017, 0.9365333914756775, 0.9656876921653748, 0.9248673915863037, 1.0353875160217285, 1.0395143032073975, 0.8936449885368347, 1.0496370792388916, 0.9743962287902832, 1.0265589952468872, 0.9680087566375732, 1.0779035091400146, 0.922797679901123, 1.0124691724777222, 1.0046770572662354, 1.0109089612960815, 0.9788444638252258, 0.9882701635360718, 0.9726592898368835, 1.080754041671753, 0.9943523406982422, 0.9973586797714233, 1.0088634490966797, 1.0108816623687744, 0.9854975342750549, 0.9395239949226379, 1.0247746706008911, 0.9993256330490112, 0.9321934580802917, 0.961491048336029, 0.9525324702262878, 1.0687310695648193, 1.0097676515579224, 1.1011472940444946, 1.0186206102371216, 0.9547565579414368, 1.031221628189087, 0.9291446208953857, 0.9652130007743835, 0.9707277417182922, 1.019020438194275, 1.027496576309204, 1.0439757108688354, 1.0126739740371704, 1.0307186841964722, 0.9810869097709656, 0.970954179763794, 0.9893305897712708, 1.001922845840454, 1.0026224851608276, 0.9427743554115295, 1.0267263650894165, 1.0567612648010254, 0.967499852180481, 1.0476758480072021, 1.0549532175064087, 0.9429064393043518, 1.1757423877716064, 1.1735724210739136, 1.0002883672714233, 0.9957696795463562, 0.9281008243560791, 1.0040667057037354, 1.0201213359832764, 0.9734538197517395, 0.9337117671966553], "bias": [0.025389062240719795, -0.06456388533115387, -0.002199304522946477, -0.06278656423091888, 0.02834225445985794, 0.005832770839333534, -0.002599996281787753, -0.054743971675634384, -0.08371424674987793, -0.04674793407320976, -0.18469823896884918, -0.05709061399102211, 0.02329588308930397, -0.14289122819900513, -0.040765274316072464, 0.003511234885081649, -0.0318075530230999, -0.10372535139322281, -0.03388213366270065, 0.023419314995408058, -0.00882245134562254, -0.006468128878623247, -0.013208861462771893, -0.08090811967849731, -0.0027588875964283943, -0.06949570775032043, 0.05593307316303253, 0.03440777212381363, 0.05273336544632912, -0.07704630494117737, -0.058533601462841034, 0.022381456568837166, 0.03673173114657402, -0.17394372820854187, -0.0667371079325676, -0.034880466759204865, 0.05721300095319748, 0.10505232959985733, -0.03696476295590401, -0.09816140681505203, -0.03793943673372269, -0.14180535078048706, 0.012451451271772385, -0.03073241002857685, -0.13119913637638092, -0.1029406189918518, -0.06420660763978958, -0.03721937909722328, 0.01258928794413805, -0.10845699906349182, -0.023427296429872513, -0.08685041964054108, -0.02130764350295067, -0.03486084192991257, -0.009366213344037533, 0.02217530645430088, -0.07134925574064255, 0.02810010500252247, 0.017637502402067184, -0.03319719061255455, -0.07032276690006256, -0.0012631915742531419, 0.03761305660009384, -0.12448012083768845, -0.026166805997490883, -0.05166411027312279, -0.038929201662540436, -0.05622900649905205, -0.08900809288024902, 0.02948877401649952, -0.010481725446879864, -0.08178407698869705, 0.06146244704723358, -0.015640797093510628, -0.15122844278812408, -0.0597970187664032, -0.08243971318006516, 0.006211247760802507, -0.0433683916926384, -0.12073958665132523, -0.009469873271882534, -0.0011458012741059065, -0.01905905455350876, -0.020404817536473274, -0.025029828771948814, -0.08940407633781433, -0.16773481667041779, -0.061257317662239075, -0.014152305200695992, -0.010709529742598534, -0.07003634423017502, -0.10649549216032028, 0.027874240651726723, 0.1357148289680481, 0.032790180295705795, 0.08579552918672562, -0.10999758541584015, -0.08131129294633865, -0.026743445545434952, -0.09885852038860321, -0.10493722558021545, -0.1316196769475937, -0.0622238926589489, 0.008986609056591988, -0.04270340874791145, -0.08943407237529755, 0.02208612486720085, -0.03273076191544533, -0.06673288345336914, -0.03286833316087723, -0.032964516431093216, 0.04562077671289444, -0.03353043645620346, -0.09008370339870453, -0.04642212763428688, -0.05371679365634918, -0.00883682444691658, -0.11251255869865417, -0.15116284787654877, 0.06908753514289856, 0.05674679949879646, 0.0053597548976540565, -0.07823211699724197, -0.014126438647508621, -0.017763808369636536, -0.003702092682942748, -0.047714538872241974, -0.08098147809505463]}}, "res_blocks": {"0": {"fc": {"weight": [[-0.054189231246709824, -0.0012162751518189907, -0.03863693028688431, 0.015076098032295704, -0.007570862304419279, 0.04562399908900261, 0.061109673231840134, -0.054074764251708984, -0.09256938099861145, -0.14778836071491241, -0.06429541856050491, 0.018826492130756378, 0.06286228448152542, 0.05828743800520897, 0.04240601137280464, 0.035774264484643936, -0.005920133087784052, -0.007398148532956839, -0.1183207705616951, 0.01116260513663292, -0.09501588344573975, -0.10279008746147156, -0.026052195578813553, -0.08624766767024994, 0.004981583915650845, 0.008636731654405594, 0.026197275146842003, 0.13169841468334198, -0.08343429118394852, -0.04925110191106796, 0.037137433886528015, 0.03858712688088417, -0.11518498510122299, 0.09505680203437805, -0.07340715080499649, 0.04559284448623657, 0.040046051144599915, 0.04165279120206833, -0.04635563865303993, -0.06472273916006088, 0.08152448385953903, -0.011788440868258476, 0.02030857466161251, 0.0821501836180687, -0.0868442952632904, 0.008575391955673695, 0.09631158411502838, -0.06198219582438469, -0.07997357845306396, -0.030062494799494743, 0.025023946538567543, -0.07573366165161133, -0.014164877124130726, 0.042430561035871506, 0.061353642493486404, 0.029693087562918663, -0.07468542456626892, 0.009030082263052464, 0.04186313971877098, -0.06738819181919098, 0.026553157716989517, -0.09610085934400558, -0.046371735632419586, -0.130231574177742, -0.008540979586541653, 0.04713812097907066, 0.09606751054525375, -0.07384564727544785, -0.03650971129536629, -0.026976363733410835, 0.0696973204612732, 0.08087772876024246, 0.0296391062438488, 0.1310400813817978, 0.030111122876405716, -0.0320621021091938, -0.05425618216395378, 0.08375168591737747, -0.04798481985926628, -0.018526433035731316, -0.044470012187957764, 0.012901101261377335, -0.07800693064928055, -0.06505900621414185, -0.03468717634677887, 0.06604503840208054, -0.04604818671941757, 0.011902431026101112, 0.06109029799699783, -0.0377441830933094, -0.0634097307920456, -0.08690638095140457, 0.03727961704134941, -0.07110145688056946, -0.07691793888807297, 0.17877168953418732, 0.07588452845811844, 0.04589465633034706, -0.014952843077480793, 0.04543071240186691, -0.08186692744493484, 0.06794852018356323, -0.07508409768342972, -0.06220312789082527, 0.10062114894390106, -0.05272788926959038, -0.024554455652832985, 0.018752073869109154, -0.06875410676002502, -0.0009555602446198463, -0.07637914270162582, 0.023330597206950188, -0.026886766776442528, 0.03643143177032471, 0.12172219157218933, -0.06209200620651245, 0.06592172384262085, -0.03800097852945328, 0.013422021642327309, -0.05628536641597748, 0.10357025265693665, 0.027206942439079285, -0.07878592610359192, 0.059830278158187866, 0.010136264376342297, 0.04795612394809723, 0.005436693783849478, 0.024301281198859215], [-0.0033244281075894833, -0.0070461248978972435, -0.04642016440629959, 0.03938921540975571, 0.014923647046089172, -0.10993636399507523, -0.027093909680843353, 0.01791568286716938, -0.06716477870941162, 0.06336258351802826, -0.049698229879140854, 0.04499467834830284, -0.08731918036937714, 0.02436903864145279, 0.03675279766321182, -0.022210929542779922, -0.0363628976047039, 0.035897109657526016, 0.061028823256492615, 0.07168987393379211, 0.06725291907787323, -0.012059219181537628, 0.11520698666572571, -0.09863259643316269, 0.07920972257852554, -0.05531636252999306, -0.03205568715929985, 0.01891593635082245, 0.06304274499416351, -0.06519129127264023, -0.07975627481937408, 0.01651785522699356, 0.019192343577742577, 0.07424650341272354, 0.07960197329521179, -0.10419290512800217, -0.06912101060152054, 0.07186177372932434, 0.018230050802230835, 0.14573676884174347, -0.05409909784793854, -0.04953853040933609, -0.030692100524902344, 0.035215843468904495, 0.006269241217523813, -0.05352483317255974, -0.0037253762129694223, -0.04800355061888695, 0.07248950004577637, 0.03752090781927109, -0.09576380997896194, 0.031825777143239975, -0.11703312397003174, -0.07776547968387604, -0.1655292510986328, 0.0422908291220665, -0.05327969416975975, 0.06430117785930634, 0.027940766885876656, -0.07791230827569962, 0.0008447256404906511, -0.09319718182086945, 0.07289519906044006, 0.12812049686908722, -0.03480766341090202, -0.016687700524926186, 0.024809658527374268, 0.038155246526002884, 0.08337545394897461, 0.05909975618124008, -0.011440321803092957, 0.07104339450597763, -0.025898108258843422, -0.07180194556713104, 0.03889772668480873, -0.07786452025175095, -0.04129815474152565, 0.06829238682985306, 0.0416187085211277, 0.011169479228556156, -0.06645644456148148, 0.04496895149350166, -0.014849265106022358, 0.11740370839834213, 0.03166918084025383, -0.014888259582221508, 0.0819488912820816, 0.024980882182717323, -0.02056281641125679, -0.012609648518264294, -0.047318801283836365, 0.023891929537057877, -0.0012852184008806944, -0.10647128522396088, -0.04372040927410126, -0.010886588133871555, 0.00136544369161129, -0.07567165791988373, -0.08412329107522964, -0.10259149968624115, 0.028943533077836037, -0.05647338926792145, -0.028720522299408913, 0.09743396937847137, -0.12248828262090683, 0.003455779980868101, -0.08574337512254715, 0.023652251809835434, 0.056004155427217484, -0.005781067535281181, 0.0629781186580658, -0.02121657505631447, -0.01840709149837494, -0.06948123872280121, -0.08596249669790268, -0.0012484707403928041, -0.0876937136054039, 0.10180385410785675, -0.052137263119220734, -0.07958727329969406, 0.0007316761184483767, 0.07940518856048584, 0.08447499573230743, -0.06520627439022064, -0.04696667939424515, 0.11607351154088974, 0.01529502309858799, -0.008430448360741138], [-0.012124517932534218, -0.015824006870388985, -0.03998241573572159, -0.07676577568054199, -0.06459514796733856, -0.05136438086628914, 0.025931334123015404, -0.05100233107805252, 0.09424859285354614, -0.06555860489606857, 0.08790507167577744, -0.02827480435371399, 0.027529394254088402, 0.10014856606721878, 0.020380014553666115, -0.055166054517030716, 0.051952384412288666, 0.025150708854198456, 0.0033656784798949957, -0.09315679967403412, -0.032260965555906296, 0.12006498873233795, 0.12552239000797272, 0.010053864680230618, 0.0025855267886072397, 0.06742692738771439, 0.049891889095306396, -0.0037356726825237274, 0.09747826308012009, -0.004009626805782318, -0.1299489140510559, -0.0409880094230175, -0.022971905767917633, 0.14206701517105103, -0.04631733521819115, -0.049478013068437576, -0.017629653215408325, -0.030431527644395828, 0.047382328659296036, -0.030454060062766075, -0.0645066425204277, 0.03325681760907173, -0.056911878287792206, -0.050088874995708466, -0.038538359105587006, 0.022703029215335846, -0.05623741075396538, 0.05239790305495262, -0.026220040395855904, 0.004307233262807131, -0.024000583216547966, -0.10005977749824524, 0.04951559007167816, -0.10582173615694046, 0.09560845792293549, 0.006447176914662123, 0.08312137424945831, 0.023792076855897903, 0.04682266712188721, 0.1099114716053009, -0.008906183764338493, -0.1164650246500969, 0.027101781219244003, -0.011072104796767235, 0.04962492734193802, 0.021430350840091705, 0.0585169717669487, -0.08043265342712402, -0.08100012689828873, -0.12153604626655579, 0.09479653090238571, -0.007225420325994492, -0.017211122438311577, 0.06528192013502121, 0.03889216482639313, -0.06036879122257233, 0.08542891591787338, -0.12141844630241394, -0.017198430374264717, -0.03948042169213295, -0.06511285156011581, 0.09221116453409195, 0.01754412241280079, -0.03628377988934517, -0.02655240334570408, -0.11384407430887222, -0.02948019653558731, 0.07223782688379288, 0.05730324983596802, 0.04102326184511185, -0.010448098182678223, 0.01187355536967516, 0.05839637666940689, 0.027987327426671982, 0.04127783700823784, -0.1310199648141861, -0.05626098811626434, -0.030709052458405495, -0.055268123745918274, -0.041845280677080154, 0.05022173374891281, -0.07036853581666946, -0.0847359448671341, 0.03887293487787247, -0.07349734753370285, -0.04687963426113129, 0.11191998422145844, -0.006300113629549742, -0.09650614112615585, -0.0498884953558445, -0.05526629835367203, 0.009054956957697868, 0.013663078658282757, 0.0813906341791153, 0.1055712103843689, -0.0594770610332489, 0.028347982093691826, -0.099370077252388, -0.07473871856927872, 0.10805467516183853, -0.06859613209962845, 0.06098040193319321, -0.014622076414525509, -0.029566233977675438, -0.015021301805973053, 0.0081602418795228, -0.01632506772875786, 0.031549111008644104], [0.033633649349212646, -0.035028938204050064, 0.01837041601538658, 0.07537244260311127, 0.09515514224767685, 0.12709946930408478, -0.05622933432459831, -0.11088478565216064, -0.030340509489178658, -0.0032688842620700598, 0.06049226596951485, 0.10079406946897507, 0.027459440752863884, 0.04009705036878586, -0.0240192748606205, -0.048854827880859375, 0.0718248039484024, 0.023979365825653076, 0.05936707556247711, 0.051988765597343445, -0.07422540336847305, 0.006524729076772928, 0.10717150568962097, 0.04756929725408554, -0.07467691600322723, 0.02303319424390793, 0.13086026906967163, 0.030267680063843727, -0.020468689501285553, -0.06396107375621796, -0.015842897817492485, 0.10206319391727448, 0.0490676574409008, 0.054622724652290344, -0.00924764946103096, 0.05642421916127205, 0.07184753566980362, -0.06520876288414001, -0.04970710352063179, 0.03262326866388321, 0.06250295788049698, -0.09144961088895798, 0.032458480447530746, -0.010922471061348915, -0.10474251210689545, 0.023610197007656097, -0.12773792445659637, 0.07686174660921097, -0.07400977611541748, -0.03234105557203293, 0.06581764668226242, -0.03485039994120598, 0.14204394817352295, -0.0866575613617897, 0.13580314815044403, 0.053330499678850174, 0.005779422353953123, -0.02417316660284996, 0.07356298714876175, 0.09953892976045609, -0.06391440331935883, -0.08529599010944366, 0.08057769387960434, -0.009719428606331348, 0.05095382779836655, 0.011535833589732647, 0.004129489418119192, 0.028283489868044853, -0.020430948585271835, 0.07957857847213745, -0.01895599253475666, -0.027487823739647865, 0.03539726138114929, 0.16588221490383148, 0.09761036187410355, -0.1270347535610199, -0.006017552223056555, -0.07799267023801804, 0.04442882165312767, -0.08923731744289398, 0.013383043929934502, -0.04808191582560539, 0.07853429019451141, -0.04776595160365105, -0.09794864803552628, 0.04155206307768822, 0.09308741241693497, -0.0064622159115970135, 0.023471400141716003, -0.029501590877771378, 0.04354377090930939, 0.08732914179563522, -0.09643018990755081, 0.11288853734731674, -0.04254370927810669, -0.062447547912597656, -0.014582972973585129, -0.006418619304895401, -0.018105177208781242, 0.10564108937978745, -0.05066554248332977, 0.06594542413949966, -0.08264855295419693, -0.013303265906870365, -0.03347261995077133, 0.03212181478738785, 0.07604669779539108, 0.025596581399440765, 0.005359190050512552, 0.04247574880719185, 0.003157389350235462, 0.01633729785680771, -0.014579039067029953, 0.09067925810813904, -0.039025597274303436, 0.014632252044975758, -0.08934129774570465, -0.058673787862062454, 0.030837537720799446, 0.11576175689697266, -0.18489907681941986, -0.0039956229738891125, 0.022525951266288757, -0.06301829218864441, 0.1459193229675293, -0.014341851696372032, 0.02816222980618477, -0.05226628854870796], [-0.04511500895023346, 0.004534298088401556, 0.03191666305065155, -0.12190291285514832, 0.07689947634935379, -0.013027378357946873, -0.05979911610484123, 0.03627435490489006, 0.026415618136525154, -0.03099946677684784, 0.02946140058338642, 0.015247253701090813, -0.11937322467565536, 0.09222082048654556, 0.08842881768941879, 0.032328203320503235, -0.053184475749731064, -0.051076941192150116, 0.007894380018115044, -0.044711653143167496, -0.0996776893734932, -0.06342083215713501, 0.04091770946979523, 0.017940619960427284, 0.11169750243425369, 0.01888619363307953, 0.032856471836566925, 0.0020619952119886875, 0.09725470095872879, -0.0941474437713623, -0.004406280815601349, 0.04528787359595299, -0.05322970822453499, -0.013639495708048344, 0.02708887867629528, 0.0008298056200146675, 0.012571959756314754, -0.1670587956905365, -0.08450789004564285, 0.02419876679778099, -0.07224176824092865, -0.021037740632891655, -0.0018800825346261263, 0.033670924603939056, -0.11788050830364227, -0.008630146272480488, -0.03492053225636482, -0.04077456519007683, -0.09088454395532608, 0.03466709330677986, 0.04909687116742134, -0.07752250134944916, 0.07521837949752808, -0.11368752270936966, 0.056172341108322144, 0.030265120789408684, -0.017240222543478012, 0.08846138417720795, -0.0959666520357132, 0.009599615819752216, -0.07345449924468994, 0.060902368277311325, 0.02050970494747162, 0.013320157304406166, 0.009100952185690403, -0.04655109718441963, -0.04329226538538933, -0.02993897721171379, 0.04403519630432129, -0.10127533972263336, -0.09939974546432495, -0.05626827850937843, -0.05965867638587952, 0.07938839495182037, -0.02489406056702137, 0.07422204315662384, 0.017364084720611572, 0.018281998112797737, -0.08347031474113464, 0.0407586395740509, 0.05364609137177467, -0.08617949485778809, 0.01917314901947975, 0.0749184787273407, -0.11099620163440704, -0.097515769302845, -0.043197955936193466, -0.041305750608444214, 0.016482319682836533, 0.007315902039408684, -0.05086371675133705, -0.06709349155426025, 0.019989946857094765, 0.003839686280116439, -0.07202738523483276, -0.07750032842159271, -0.07996704429388046, -0.09724587947130203, -0.07297088950872421, 0.016257278621196747, -0.04597633332014084, -0.060884565114974976, 0.012706082314252853, 0.0902416780591011, 0.024131199344992638, -0.012733942829072475, -0.14243300259113312, -0.0638519823551178, 0.035668063908815384, 0.08521813154220581, 0.004908246453851461, -0.11695196479558945, -0.0958491638302803, 0.03849957138299942, -0.09294512867927551, -0.056951310485601425, -0.08209288120269775, 0.10633821040391922, -0.07581862807273865, -0.0703338086605072, 0.06643310189247131, -0.11758532375097275, -0.015088992193341255, -0.0316467210650444, 0.0645136907696724, 0.08273208141326904, 0.05473653972148895, 0.0577198751270771], [-0.11281286925077438, 0.08864470571279526, -0.04299480468034744, -0.10225003957748413, 0.028627175837755203, -0.0030817382503300905, -0.007991896942257881, -0.08757054060697556, 0.06329763680696487, -0.021327955648303032, -0.05956852808594704, 0.07566993683576584, 0.025295501574873924, 0.017434552311897278, -0.10966400802135468, 0.020644523203372955, 0.03987148031592369, -0.019491059705615044, 0.025733107700943947, 0.08372540026903152, -0.10690329223871231, -0.06951486319303513, 0.007925380021333694, 0.0370931401848793, 0.1429990828037262, -0.06417451053857803, -0.16011942923069, -0.04773813113570213, -0.02251647226512432, 0.06584357470273972, -0.07014929503202438, 0.06092254817485809, -0.084372378885746, 0.050918012857437134, 0.12938480079174042, -0.04457990825176239, 0.12790806591510773, 0.0033846471924334764, -0.02056369185447693, 0.04273400455713272, -0.049201153218746185, -0.01392175443470478, -0.023019514977931976, 0.05467729642987251, -0.06339763849973679, 0.07914412021636963, 0.06253977119922638, -0.13539163768291473, -0.03835040703415871, -0.041412901133298874, 0.10465427488088608, -0.030662016943097115, -0.09398951381444931, -0.062496963888406754, -0.08005370944738388, 0.09757515043020248, -0.04272381216287613, -0.046519748866558075, -0.016065845265984535, -0.09099727123975754, 0.009511633776128292, 0.01952769234776497, -0.06940604001283646, 0.09884724766016006, 0.09104020893573761, 0.07678824663162231, -0.1045084297657013, -0.009889695793390274, 0.021043986082077026, 0.030178124085068703, -0.10534775257110596, 0.051446713507175446, -0.11306271702051163, -0.00612013740465045, -0.058418989181518555, -0.031247474253177643, 0.1117796003818512, 0.10204257816076279, 0.027355561032891273, 0.11134817451238632, 0.01370171643793583, 0.08577270060777664, 0.014867331832647324, 0.07880569994449615, -0.01744854263961315, 0.057749129831790924, 0.05809101089835167, -0.026205794885754585, 0.006235367618501186, -0.013666563667356968, -0.032270804047584534, 0.005912613123655319, -0.08529175072908401, 0.03196926787495613, 0.07451696693897247, -0.007492666132748127, -0.027819352224469185, -0.12417324632406235, 0.022761695086956024, 0.0732436403632164, -0.03812674432992935, -0.018483499065041542, 0.050339989364147186, 0.11216576397418976, 0.018930261954665184, -0.06953830271959305, 0.02311285212635994, 0.0234010498970747, 0.06478622555732727, -0.08383660018444061, -0.01752353087067604, -0.04688417911529541, -0.011840173974633217, -0.03620685264468193, 0.0021617235615849495, 0.018004927784204483, 0.015600502490997314, 0.07239609956741333, -0.04811728373169899, -0.05037575587630272, 0.07282769680023193, -0.1504397839307785, -0.052579306066036224, -0.11198747158050537, 0.06358662247657776, 0.05679387226700783, 0.03390209749341011, -0.004437352996319532], [-0.12607942521572113, 0.06459300965070724, 0.04174118489027023, -0.05535787343978882, 0.02797672525048256, -0.00597203616052866, 0.08321573585271835, -0.1395723521709442, -0.06606394797563553, 0.09472459554672241, 0.03645009547472, -0.04915779083967209, -0.02364407852292061, 0.011103516444563866, 0.0763644427061081, -0.02060540020465851, -0.0036046444438397884, 0.01446546334773302, 0.005508849397301674, -0.06404679268598557, 0.07861838489770889, -0.0016554032918065786, 0.05985793471336365, -0.006188738625496626, -0.02639947645366192, 0.0024084753822535276, -0.03155606612563133, 0.05545296147465706, -0.06091003119945526, 0.05217953026294708, -0.09575647860765457, -0.04947548359632492, 0.024537542834877968, 0.01709972694516182, -0.043733034282922745, 0.0493411123752594, 0.10139350593090057, -0.018583068624138832, 0.042334072291851044, -0.09951513260602951, -0.007546855602413416, 0.06839999556541443, -0.10771452635526657, -0.10089267790317535, -0.0009235190809704363, -0.034420572221279144, 0.08512593805789948, 0.0187080018222332, -0.12352623790502548, 0.0271952822804451, 0.10429193824529648, 0.005229907110333443, -0.08462691307067871, -0.0019584218971431255, -0.03728519380092621, 0.027746276929974556, -0.02829328551888466, 0.047271955758333206, -1.9779537979047745e-05, -0.043724626302719116, -0.003307090839371085, 0.007940568961203098, -0.09217000007629395, -0.010446091182529926, 0.04246186837553978, -0.07909901440143585, -0.010572625324130058, -0.04749086871743202, -0.009785669855773449, -0.009689586237072945, 0.06820103526115417, -0.010372876189649105, -0.06894604116678238, -0.04050534591078758, -0.05599969998002052, -0.06359928846359253, -0.026905573904514313, -0.04138081893324852, 0.02446760982275009, -0.06643980741500854, 0.06260394304990768, 0.08871310204267502, -0.0762212723493576, 0.0017114776419475675, -0.07180348038673401, 0.07836946099996567, -0.06485457718372345, 0.00131866370793432, 0.07909885048866272, 0.006649377755820751, -0.10872112959623337, 0.0954023227095604, -0.0016516377218067646, -0.06656161695718765, 0.026243140920996666, -0.057219743728637695, -0.03593945875763893, -0.053467653691768646, -0.06201883405447006, 0.05381182208657265, -0.09947557747364044, -0.10892096161842346, 0.06585238128900528, 0.001658960827626288, -0.030387386679649353, -0.08711107820272446, -0.015319003723561764, -0.0411810539662838, -0.08283855766057968, 0.07605477422475815, 0.08098409324884415, -0.1124444231390953, -0.014605808071792126, 0.09296701848506927, -0.025332052260637283, 0.03703097254037857, 0.05718586966395378, 0.13168556988239288, 0.038684215396642685, 0.10159756988286972, -0.05221535637974739, -0.024286655709147453, 0.06905820965766907, -0.06566444784402847, -0.003638915019109845, -0.03628784045577049, 0.05085286125540733, -0.02179783396422863], [-0.050228431820869446, 0.014589381404221058, 0.08008778840303421, 0.05618100240826607, 0.02858028933405876, 0.03564364090561867, 0.11185450851917267, -0.05874688923358917, 0.09116294234991074, -0.010091469623148441, 0.16125769913196564, 0.03708530589938164, 0.07223822921514511, -0.07703205943107605, -0.03769180178642273, -0.030732622370123863, 0.029007038101553917, 0.03861372172832489, 0.05220147222280502, 0.012799928896129131, 0.010722233913838863, -0.09501063078641891, 0.07069272547960281, 0.015425528399646282, -0.06204951927065849, 0.02188974618911743, -0.016014553606510162, 0.0862952172756195, 0.03733012452721596, -0.09067437052726746, -0.10095378011465073, -0.026628196239471436, 0.06854113191366196, 0.014379827305674553, 0.11311192065477371, 0.04798722267150879, -0.06674038618803024, -0.10679180920124054, -0.0536782331764698, 0.06180251017212868, 0.10808298736810684, -0.0746045932173729, 0.05327067896723747, 0.01745329052209854, -0.08937470614910126, -0.18979279696941376, 0.05973650515079498, -0.011813456192612648, -0.03652748838067055, 0.06980163604021072, 0.0030262970831245184, 0.03468715399503708, 0.0712171345949173, 0.009259466081857681, -0.06835921853780746, -0.1352616548538208, -0.09746146947145462, -0.04005006328225136, -0.0786803737282753, 0.038035161793231964, 0.10580165684223175, -0.13832306861877441, -0.05235584080219269, 0.04141692817211151, 0.040629852563142776, 0.006916723679751158, 0.0486491434276104, 0.00977148488163948, 0.04519777372479439, 0.08571367710828781, 0.03850020840764046, -0.11857302486896515, -0.048837728798389435, -0.02004203200340271, -0.0016687781317159534, 0.09537557512521744, 0.006331168580800295, -0.05798795819282532, 0.007927637547254562, 0.06659886240959167, 0.020805256441235542, -0.03631557896733284, -0.007305466569960117, -0.09263688325881958, -0.07804366946220398, -0.08736196160316467, 0.0538959838449955, 0.008709479123353958, -0.06359606236219406, -0.04634813219308853, 0.03869841992855072, -0.14330878853797913, 0.0707688108086586, 0.024647042155265808, 0.05538788437843323, 0.07488435506820679, 0.05336359888315201, -0.030099350959062576, 0.03919130191206932, -0.04343262314796448, 0.01267432700842619, 0.054537009447813034, -0.0036395913921296597, -0.01016300916671753, 0.1196349635720253, 0.10566633194684982, 0.022311393171548843, 0.09885245561599731, 0.006468380335718393, 0.04415178671479225, 0.02993660420179367, 0.047801319509744644, -0.03322895988821983, -0.04624215140938759, 0.043746206909418106, -0.012842534109950066, 0.011550815775990486, -0.00960357952862978, -0.038717709481716156, -0.04500827565789223, -0.12457720935344696, 0.06727875769138336, 0.07290295511484146, -0.012564942240715027, 0.059607263654470444, 0.028154220432043076, 0.016118424013257027, 0.052101846784353256], [-0.052192430943250656, 0.06214892491698265, 0.059479232877492905, 0.024405743926763535, -0.002753784414380789, -0.033678337931632996, 0.06698808819055557, -0.0668768435716629, -0.026957597583532333, 0.0020472928881645203, 0.11061803996562958, -0.012002993375062943, 0.02786981500685215, 0.024571817368268967, -0.03187372907996178, 0.002586791291832924, 0.07094661146402359, -0.06884098052978516, -0.023028984665870667, 0.004160692915320396, 0.020143801346421242, -0.06872671097517014, -0.02824963629245758, -0.04095917195081711, 0.019221803173422813, -0.030914023518562317, -0.10043398290872574, -0.054521091282367706, 0.005641777068376541, -0.018745532259345055, 0.043554261326789856, 0.08863648772239685, -0.07313159108161926, -0.013450038619339466, -0.04395751282572746, -0.0364529974758625, 0.006759175099432468, -0.060461271554231644, -0.034741587936878204, -0.019448380917310715, -0.038403693586587906, 0.011667258106172085, -0.07021238654851913, -0.07551002502441406, -0.022073131054639816, 0.021756475791335106, -0.029582757502794266, -0.08284204453229904, 0.05421300604939461, 0.04483116790652275, -0.11489348858594894, -0.054187241941690445, 0.013909566216170788, -0.007963309995830059, 0.023563330993056297, 0.11789190769195557, -0.08800127357244492, -0.0443621389567852, 0.06603288650512695, 0.03512116149067879, 0.0849933847784996, 0.06922725588083267, -0.03698762133717537, -0.029212431982159615, -0.03119604103267193, -0.06021980941295624, -0.001061237882822752, 0.022242752835154533, 0.06644639372825623, -0.19571837782859802, 0.059411339461803436, 0.06942261755466461, -0.013232684694230556, 0.00265626166947186, 0.026168782263994217, -0.09422406554222107, 0.026470553129911423, 0.05012412369251251, -0.02063717506825924, -0.011590205132961273, 0.040856409817934036, 0.053530044853687286, -0.03178441897034645, 0.06447277963161469, 0.020153833553195, -0.07491843402385712, 0.0151043850928545, -0.06563229858875275, 0.11273060739040375, -0.04785650968551636, 0.06466291844844818, 0.07162030041217804, 0.024001238867640495, -0.1266328990459442, -0.1305478811264038, 0.116388700902462, -0.023641711100935936, 0.06950587034225464, -0.07102950662374496, -0.002934834687039256, -0.011820677667856216, 0.030912993475794792, -0.06269925832748413, 0.09829621016979218, 0.012923403643071651, -0.07473943382501602, -0.06709887832403183, 0.031191330403089523, 0.08121275156736374, 0.04362587630748749, -0.05719427019357681, -0.031005823984742165, 0.09368552267551422, 0.0005471024778671563, -0.003034713212400675, 0.013220478780567646, 0.07658331096172333, -0.02799326926469803, 0.0967382863163948, -0.008752502501010895, -0.002393325325101614, -0.055737610906362534, 0.02650444395840168, -0.013863657601177692, 0.01761230081319809, 0.049993254244327545, 0.05666542798280716, 0.0285637266933918], [0.011579498648643494, 0.031678199768066406, -0.027821678668260574, 0.05075514689087868, -0.003000532044097781, -0.03200537711381912, 0.013131027109920979, -0.05311771482229233, -0.054706454277038574, 0.06342844665050507, 0.05046650022268295, -0.06656627357006073, -0.0741114690899849, -0.03999219089746475, 0.03040197677910328, 0.07357637584209442, 0.10786037147045135, 0.06260180473327637, -0.037409354001283646, -0.06583353132009506, 0.10084021091461182, 0.12265145033597946, 0.011663821525871754, -0.0812881737947464, -0.10708565264940262, 0.02549571916460991, 0.020410943776369095, 0.04058752581477165, -0.042728833854198456, 0.016217755153775215, 0.07192417234182358, -0.07329989969730377, -0.11037043482065201, -0.09426891058683395, -0.011620596051216125, -0.07001464813947678, 0.010141836479306221, 0.0435795821249485, -0.011202945373952389, -0.011461885645985603, 0.0397813655436039, -0.0032847942784428596, 0.05880013108253479, 0.10231098532676697, -0.05702491104602814, 0.07002521306276321, -0.04550820589065552, 0.0008660749881528318, -0.02778738923370838, -0.03369273617863655, -0.044217437505722046, -0.0580681711435318, 0.12954460084438324, -0.04152924567461014, -0.04826068505644798, -0.09024187177419662, -0.04922367259860039, -0.040730755776166916, -0.11138280481100082, 0.13530579209327698, 0.013843677937984467, -0.02456899732351303, 0.026707183569669724, 0.05435371398925781, -0.11713527888059616, -0.03835909813642502, -0.0253740381449461, 0.1235567033290863, 0.036101650446653366, 0.011576918885111809, -0.026201333850622177, 0.04147923365235329, -0.08032064139842987, -0.0012746119173243642, 0.09876775741577148, 0.00524293165653944, 0.043695587664842606, -0.08756686002016068, -0.10487252473831177, 0.007910621352493763, -0.019115515053272247, 0.030381036922335625, -0.03232897073030472, 0.02405993826687336, -0.02998180128633976, 0.0004726033075712621, 0.0018193573923781514, -0.030355848371982574, 0.008411110378801823, 0.11169949173927307, 0.03663318231701851, -0.08095608651638031, -0.1264130026102066, 0.05808103084564209, -0.036092426627874374, -0.027803756296634674, 0.061213962733745575, -0.01973399706184864, -0.04620115086436272, 0.004893238190561533, 0.057256922125816345, -0.06689687073230743, -0.09271065890789032, -0.0792582780122757, -0.035297587513923645, -0.09875233471393585, -0.04447276517748833, 0.09277442842721939, 0.05449541285634041, -0.046682316809892654, 0.09431914985179901, -0.1161574125289917, 0.03585919365286827, -0.07657532393932343, 0.06663064658641815, -0.012897546403110027, 0.00029404129600152373, 0.03805164247751236, -0.04642555117607117, 0.026673324406147003, 0.07053397595882416, -0.08712688088417053, 0.08136823773384094, 0.03557170182466507, 0.06536848098039627, 0.010273373685777187, 0.006292926613241434, -0.006489631254225969], [-0.009298499673604965, -0.05606185272336006, -0.07231931388378143, -0.06632275134325027, -0.059682730585336685, 0.08877287805080414, -0.0334843248128891, 0.0023843829985708, 0.05688706040382385, -0.09219823777675629, 0.07502338290214539, 0.09010833501815796, -0.0193447507917881, 0.019788535311818123, 0.01654823124408722, -0.0350654236972332, 0.09207279235124588, -0.0971297025680542, -0.0005040698451921344, 0.033270444720983505, 0.1396733671426773, 0.03447779640555382, -0.008474580943584442, -0.06906303763389587, 0.049988843500614166, -0.11254280060529709, -0.049636635929346085, -0.04291900619864464, 0.08664120733737946, 0.036451004445552826, -0.0746692344546318, -0.059037186205387115, 0.0451403371989727, -0.026800289750099182, -0.0031185063999146223, 0.12366876751184464, -0.006226241122931242, -0.05644857883453369, -0.07392779737710953, 0.049231741577386856, -0.055103011429309845, 0.07701527327299118, -0.04123319685459137, 0.02599474787712097, 0.025417501106858253, -0.07903848588466644, -0.04808643460273743, 0.03416956216096878, -0.07682434469461441, -0.018946640193462372, -0.007487575523555279, 0.08222126960754395, -0.03688933327794075, 0.051657047122716904, 0.01332405861467123, 0.02511521242558956, -0.00842511747032404, -0.02010759897530079, 0.05655659735202789, 0.0175271425396204, -0.055189814418554306, -0.11418075859546661, 0.07107952237129211, 0.004034029319882393, 0.09423474967479706, 0.037582676857709885, -0.09583240747451782, -0.05308808386325836, 0.03411542996764183, 0.023181287571787834, 0.047079604119062424, -0.21039636433124542, -0.05904208496212959, 0.013340327888727188, 0.04637865349650383, 0.024039605632424355, -0.020737266167998314, -0.026386059820652008, 0.06728053092956543, -0.018763672560453415, -0.04577340558171272, 0.07390618324279785, 0.01833711378276348, -0.044218845665454865, 0.058075230568647385, 0.010594207793474197, -0.119007408618927, -0.02321699820458889, 0.07031083852052689, 0.1192537173628807, -0.04059413820505142, -0.16046856343746185, -0.11714006215333939, 0.080220527946949, 0.041851144284009933, 1.9199329472030513e-05, 0.03609977290034294, 0.038417477160692215, -0.11914043873548508, -0.08388512581586838, 0.06821292638778687, 0.04746989533305168, 0.04818178340792656, -0.12321359664201736, -0.08097591251134872, 0.017661690711975098, 0.03381828963756561, 0.03822264075279236, 0.033812135457992554, 0.018674131482839584, -0.0009229103452526033, -0.005391388665884733, 0.08343861252069473, 0.066372349858284, 0.10417871177196503, -0.08730203658342361, -0.09072622656822205, -0.032376356422901154, 0.02582799457013607, -0.05182482302188873, -0.22398707270622253, 0.06164933368563652, -0.08503565192222595, 0.05609593167901039, -0.04672785848379135, -0.07179532200098038, 0.04647485539317131, 0.04475003108382225], [-0.06302280724048615, -0.1408810317516327, -0.11906645447015762, -0.08439929783344269, -0.03358203172683716, 0.02420138381421566, -0.10091311484575272, -0.023556776344776154, 0.0043595279566943645, -0.00918257050216198, -0.1268228441476822, 0.146260067820549, -0.02486111968755722, 0.031154949218034744, -0.03167030215263367, 0.0009420367423444986, 0.0021940236911177635, 0.01927930861711502, -0.03952351212501526, 0.03719804808497429, -0.09019564837217331, 0.06011175736784935, 0.09709206968545914, -0.015350735746324062, 0.0015751039609313011, -0.03927287831902504, 0.03218521550297737, -0.030156780034303665, -0.08990595489740372, -0.03916612267494202, -0.05741659179329872, 0.10108868777751923, 0.06518474221229553, -0.0958811417222023, -0.03843865916132927, -0.016172591596841812, 0.017022686079144478, -0.1592532992362976, 0.013804552145302296, -0.008503150194883347, -0.03529508411884308, -0.06287291646003723, 0.03285583108663559, -0.08590482920408249, 0.05932370573282242, -0.01843683049082756, -0.023780932649970055, -0.05594123527407646, -0.004886695649474859, -0.0236052256077528, 0.005321479868143797, 0.03217488154768944, -0.0026739866007119417, 0.03044535405933857, 0.12050130218267441, 0.05516494810581207, 0.012153860181570053, 0.02387535199522972, -0.05158022791147232, -0.041719838976860046, 0.03338802233338356, -0.06588775664567947, 0.07757426053285599, -0.009888586588203907, -0.05570916831493378, 0.03467783331871033, 0.07685702294111252, -0.032663989812135696, -0.036031145602464676, -0.0546850822865963, -0.005994902458041906, -0.033587098121643066, -0.1298343688249588, 0.07197892665863037, 0.020167570561170578, 0.0155705027282238, -0.055211786180734634, 0.018767237663269043, -0.13190479576587677, 0.03141745924949646, 0.06529537588357925, -0.002863676520064473, 0.028937777504324913, -0.07732190936803818, -0.12313276529312134, -0.023197710514068604, -0.058428410440683365, -0.0012860232964158058, 0.08850958198308945, 0.07521400600671768, -0.003882406512275338, 0.028813062235713005, 0.013992516323924065, -0.13083404302597046, 0.03440875932574272, 0.10204029828310013, -0.03413860872387886, -0.02736368589103222, -0.04588709771633148, -0.061629775911569595, 0.00431872857734561, -0.017568795010447502, 0.06399174779653549, -0.03966527432203293, 0.010156274773180485, 0.04532269388437271, 0.054255273193120956, -0.013181786052882671, -0.036053355783224106, -0.004007196053862572, 0.09528058022260666, -0.008729534223675728, -0.042328666895627975, -0.04138777777552605, -0.14824278652668, 0.018879231065511703, -0.028849784284830093, -0.022775771096348763, -0.06620922684669495, -0.06395088881254196, -0.13346485793590546, -0.035328369587659836, 0.026550084352493286, -0.10264744609594345, -0.040969282388687134, -0.03322621062397957, 0.06907171756029129, 0.004938741214573383], [-0.0011456439970061183, 0.030171846970915794, 0.08540694415569305, 0.03778909146785736, -0.016987236216664314, 0.024586306884884834, -0.021754326298832893, 0.0633009746670723, 0.038686539977788925, 0.08560343086719513, 0.06918980926275253, 0.08893664926290512, 0.10806457698345184, -0.000742832722608, -0.03896566480398178, 0.025418303906917572, -0.07006574422121048, 0.058985691517591476, 0.02206340618431568, 0.023942148312926292, 0.021484320983290672, -0.07439243793487549, -0.08097667247056961, 0.014733296819031239, -0.12499286234378815, 0.10795725136995316, -0.04799198731780052, 0.06912162154912949, 0.12940405309200287, 0.022058086469769478, -0.10579508543014526, -0.03621401637792587, 0.0028862033504992723, 0.062022704631090164, 0.006912624463438988, -0.027298301458358765, -0.08733118325471878, -0.10708506405353546, 0.03874601051211357, -0.08845063298940659, 0.030648257583379745, 0.019485672935843468, -0.009399921633303165, 0.059944480657577515, 0.03483017161488533, -0.08850400149822235, -0.015475359745323658, 0.06979567557573318, 0.005850349087268114, 0.04764538258314133, 0.0456085242331028, -0.006690951529890299, 0.04149651154875755, -0.12633195519447327, -0.06057238206267357, 0.023925205692648888, -0.0656818225979805, -0.14352035522460938, 0.06084885448217392, -0.06727754324674606, -0.0642952173948288, 0.06336752325296402, -0.11352616548538208, -0.0357084758579731, -0.15455421805381775, 0.08822378516197205, 0.05273256450891495, -0.07289570569992065, -0.016418268904089928, 0.019223609939217567, -0.036591436713933945, 0.04114179685711861, -0.05710373818874359, 0.0723995715379715, 0.08187010884284973, 0.12556806206703186, 0.0246454905718565, 0.0939897820353508, -0.06323924660682678, 0.0918671190738678, -0.040494777262210846, -0.10370475798845291, 0.09598895907402039, 0.09587010741233826, 0.002738571958616376, -0.015763260424137115, -0.09728500247001648, 0.04812556132674217, -0.10152259469032288, 0.000844737805891782, 0.0015757785877212882, 0.05064765363931656, -0.0245712511241436, -0.08685234934091568, -0.0073889512568712234, -0.002274849684908986, 0.11249160766601562, 0.02279478870332241, -0.10446390509605408, -0.06746412068605423, 0.04328693076968193, 0.15345503389835358, 0.02800813503563404, -0.011983470991253853, 0.06290202587842941, -0.08912970125675201, 0.004425566643476486, 0.04004044085741043, 0.09047891199588776, 0.03147117421030998, -0.025246698409318924, 0.05325542017817497, -0.048526618629693985, 0.022046223282814026, -0.0019042021594941616, -0.044429004192352295, 0.01815333217382431, 0.020946528762578964, 0.060517244040966034, 0.01599735952913761, 0.006584917660802603, -0.03706324100494385, -0.016665101051330566, 0.052303846925497055, -0.051228344440460205, -0.06690946221351624, 0.011558103375136852, 0.06904822587966919], [-0.04725398123264313, 0.10374370962381363, -0.06843584775924683, -0.0011065775761380792, 0.018654534593224525, -0.02499251812696457, 0.034081362187862396, -0.11272677779197693, 0.004981767386198044, -0.053132250905036926, -0.021545616909861565, -0.10036394000053406, 0.06007141247391701, 0.05781083554029465, 0.026794854551553726, -0.061866048723459244, -0.05293041840195656, -0.02322983555495739, 0.10078424215316772, -0.05624239146709442, 0.04319864511489868, 0.04888233542442322, 0.022513261064887047, -0.09983018785715103, 0.009348531253635883, -0.0017755588050931692, 0.04000474885106087, -0.06230587139725685, -0.002011986216530204, -0.04734942689538002, 0.08092894405126572, -0.04111366346478462, 0.10784105956554413, -0.08466211706399918, -0.028119683265686035, 0.018748689442873, 0.004501108080148697, 0.04944905266165733, -0.03561168536543846, 0.0023729458916932344, -0.047808852046728134, -0.021639982238411903, 0.09106973558664322, 0.0838601216673851, -0.029737034812569618, 0.020061183720827103, -0.03407898545265198, 0.05718447268009186, 0.003992409445345402, -0.04314326494932175, 0.05379299446940422, 0.01005604863166809, 0.01916448213160038, 0.14264383912086487, -0.06646356731653214, 0.024057243019342422, 0.034831032156944275, -0.03870515897870064, -0.06689301878213882, -0.10372991114854813, 0.11669249832630157, 0.10890711098909378, -0.12568813562393188, 0.05501410737633705, 0.048568494617938995, 0.08298871666193008, -0.060351625084877014, -0.007885856553912163, -0.12594620883464813, -0.011457931250333786, 0.027729371562600136, -0.0003852243535220623, -0.012065870687365532, 0.0168557520955801, -0.011562513187527657, 0.051358867436647415, -0.04468008875846863, -0.03617173060774803, -0.009580542333424091, -0.1151127889752388, -0.07725070416927338, -0.09080356359481812, 0.080407053232193, 0.008931194432079792, 0.014743033796548843, 0.009509497322142124, -0.025364825502038002, -0.041760481894016266, -0.0075195967219769955, -0.05628093332052231, -0.001414432772435248, 0.07445341348648071, -0.030988136306405067, -0.10016340762376785, 0.0671454444527626, 0.010013328865170479, 0.010719641111791134, 0.0013704224256798625, 0.012978062964975834, 0.09047724306583405, 0.09589464217424393, -0.005479455925524235, 0.081210196018219, -0.0026575818192213774, -0.002598873572424054, 0.10001428425312042, -0.006411807611584663, 0.04126718267798424, 0.0178774893283844, 0.07521802186965942, -0.06020864471793175, 0.04787895828485489, 0.0268032718449831, -0.004643549211323261, 0.045998960733413696, 0.024958733469247818, 0.10320532321929932, 0.12138937413692474, 0.012478292919695377, -0.03227655589580536, -0.036286305636167526, -0.07281381636857986, 0.0549139603972435, 0.01880587264895439, 0.08032418042421341, 0.07311523705720901, 0.08882633596658707, -0.07025647163391113], [0.07249495387077332, -0.006528895348310471, -0.04585647955536842, -0.054992903023958206, -0.04126068204641342, -0.15272732079029083, 0.09691306203603745, 0.0462476909160614, -0.05100155994296074, -0.14539985358715057, -0.03757700324058533, -0.07449168711900711, -0.12183975428342819, -0.03622950613498688, 0.1213751807808876, -0.05143430829048157, 0.045401398092508316, -0.0622810423374176, 0.0270946454256773, -0.05551859736442566, -0.012241534888744354, 0.010856122709810734, 0.0009835524251684546, -0.025986554101109505, -0.02082376554608345, 0.003069512080401182, 0.04947981238365173, -0.11293286830186844, -0.02597568929195404, -0.012337962165474892, 0.06297578662633896, -0.10612732917070389, 0.045535244047641754, 0.0790502056479454, -0.09577762335538864, -0.013851707801222801, 0.06475697457790375, 0.06709786504507065, 0.021032724529504776, -0.013410900719463825, -0.046126119792461395, -0.02167481556534767, -0.08466523140668869, 0.01634259708225727, 0.08376997709274292, 0.009017140604555607, 0.08142953366041183, 0.0826626792550087, -0.00010881918569793925, -0.010630391538143158, 0.051394302397966385, -0.05165375769138336, -0.08882004022598267, -0.026959886774420738, -0.11131124943494797, 0.0592195987701416, 0.04847758263349533, -0.0069023859687149525, -0.0722174420952797, 0.0206323079764843, -0.0006135403527878225, 0.08379945904016495, 0.05360596626996994, 0.02838544175028801, 0.03978555649518967, 0.07915754616260529, -0.1089656800031662, -0.025230595842003822, 0.02377479150891304, 0.0595858134329319, 0.03131420910358429, 0.04155350849032402, 0.04491531848907471, -0.049471866339445114, -0.009731868281960487, -0.10391407459974289, 0.057204123586416245, -0.08229998499155045, 0.0035248221829533577, -0.03175421431660652, -0.06303279846906662, 0.022788716480135918, -0.011131231673061848, -0.032748639583587646, 0.010787266306579113, -0.1357966661453247, 0.07660037279129028, 0.07632767409086227, -0.0023624752648174763, -0.010448870249092579, 0.0645715594291687, -0.010133350268006325, -0.020427510142326355, 0.06778966635465622, -0.07371076196432114, -0.0013048104010522366, 0.023901687934994698, 0.06167344003915787, -0.006093604024499655, 0.07930687069892883, -0.050576020032167435, -0.07881072908639908, -0.009532669559121132, -0.05350962281227112, -0.030348703265190125, 0.07589000463485718, -0.14284567534923553, 0.013701388612389565, 0.04092874005436897, -0.08623772114515305, -0.10722258687019348, -0.03284189850091934, -0.12066777050495148, -0.09057694673538208, 0.012136504985392094, 0.004549449309706688, 0.09869087487459183, -0.021123114973306656, -0.10476703196763992, -0.07796486467123032, -0.09636189788579941, -0.055089980363845825, -0.0034426222555339336, 0.040394365787506104, -0.1252181977033615, -0.012348960153758526, -0.011638129130005836, -0.09362366795539856], [0.0024988388177007437, 0.010163952596485615, -0.12135550379753113, 0.05511060357093811, 0.048673003911972046, -0.002250903518870473, -0.010127473622560501, -0.042737822979688644, 0.09725580364465714, -0.007154131308197975, 0.0867229551076889, 0.01427408866584301, -0.046702153980731964, 0.07583694905042648, 0.09435508400201797, 0.04590873792767525, 0.0995761826634407, 0.06386314332485199, -0.14982926845550537, 0.01815088838338852, 0.008209368214011192, -0.09895039349794388, 0.03417610749602318, -0.08804038912057877, 0.06602677702903748, -0.031280118972063065, -0.031071027740836143, -0.09245758503675461, 0.07069719582796097, 0.09922433644533157, 0.0017918181838467717, -0.03532155230641365, -0.04665552079677582, 0.04123321548104286, 0.037716854363679886, 0.06596000492572784, -0.014939552173018456, 0.025933217257261276, -0.04836564511060715, -0.029352229088544846, -0.013506320305168629, 0.03481890633702278, 0.0007098824135027826, 0.0666695088148117, -0.03845153748989105, -0.07457319647073746, -0.003945636097341776, -0.006937829777598381, 0.014631194993853569, 0.03660708665847778, 0.17055882513523102, 0.0684821754693985, 0.010025681927800179, 0.07993387430906296, -0.024800753220915794, 0.06929352134466171, -0.01325665321201086, -0.16000090539455414, 0.02177862636744976, 0.06736324727535248, -0.07875404506921768, -0.004212174564599991, -0.15568818151950836, 0.0581660121679306, 0.021103916689753532, 0.0795712098479271, 0.018669238314032555, 0.05014193430542946, 0.024302303791046143, 0.05873620882630348, -0.04781230166554451, 0.03757506608963013, -0.08899229019880295, 0.060309093445539474, 0.031083550304174423, 0.04992542788386345, -0.0585508830845356, -0.0955653041601181, -0.08932870626449585, -0.10568547993898392, -0.045367591083049774, -0.12893052399158478, 0.08699112385511398, 0.06153295934200287, -0.027939923107624054, 0.02799122966825962, 0.09765902906656265, -0.09484834969043732, -0.020195992663502693, 0.08271152526140213, 0.08524934202432632, -0.014133434742689133, 0.09872445464134216, -0.016346808522939682, -0.041549213230609894, 0.037183478474617004, 0.06603220850229263, -0.006727566011250019, -0.0693744644522667, 0.03793756291270256, 0.11150987446308136, -0.020996414124965668, 0.06913988292217255, -0.10249247401952744, -0.03390808030962944, -0.0239087026566267, 0.04699879512190819, -0.015630733221769333, 0.041750118136405945, -0.0021057131234556437, -0.1081613078713417, -0.03237200155854225, -0.028959522023797035, 0.019398070871829987, 0.10693683475255966, -0.03822243958711624, -0.034425195306539536, 0.03049667552113533, -0.04306216537952423, 0.06236846372485161, -0.07176915556192398, -0.04866550490260124, -0.10362455993890762, -0.028701284900307655, 0.020742006599903107, -0.019858194515109062, -0.0432949997484684, -0.0038442150689661503], [0.04066494479775429, -0.02249494567513466, -0.021868741139769554, -0.02893923781812191, -0.12932634353637695, -0.03226330876350403, -0.044670455157756805, 0.03033914789557457, 0.062376294285058975, -0.16528509557247162, -0.03304867446422577, 0.039683420211076736, -0.03496431186795235, 0.01899920590221882, 0.030267950147390366, -0.004125592764467001, 0.08295253664255142, -0.0908588096499443, 0.04566400125622749, -0.034288935363292694, 0.08187784254550934, -0.02165624313056469, 0.09101592749357224, 0.06163177266716957, -0.046449534595012665, 0.004132362548261881, 0.10197948664426804, -0.011100874282419682, -0.0014935845974832773, -0.11040344834327698, -0.08276742696762085, 0.10125713795423508, 0.05872513726353645, 0.05304630100727081, -0.0032418982591480017, 0.003229421330615878, 0.05326465144753456, -0.0222602691501379, 0.03609191253781319, 0.07337736338376999, -0.005583895370364189, 0.05063710734248161, 0.02272394485771656, 0.08284672349691391, -0.04099380224943161, 0.057576730847358704, -0.045670393854379654, 0.06407748907804489, 0.07091937959194183, -0.07746656239032745, -0.05838164687156677, -0.05400269478559494, -0.0059628901071846485, 0.048813533037900925, -0.06408561766147614, -0.08231310546398163, 0.019614381715655327, -0.0681847333908081, -0.0543685220181942, 0.012248009443283081, -0.03124050796031952, 0.05125610530376434, -0.047361329197883606, -0.05531393364071846, -0.03191016986966133, -0.027412796393036842, 0.10363548994064331, -0.11146534234285355, -0.11581871658563614, 0.04396141320466995, 0.09306563436985016, -0.02882092259824276, -0.027589622884988785, -0.023898271843791008, -0.03454382345080376, -0.04582549259066582, -0.0641830563545227, -0.07215718924999237, 0.09447504580020905, -0.07187164574861526, -0.031265027821063995, 0.09572532773017883, 0.02825728803873062, 0.04201770946383476, -0.06532695889472961, -0.16174128651618958, 0.013240925967693329, 0.02659202180802822, 0.06958328187465668, -0.04714580252766609, 0.0349162220954895, 0.028001531958580017, 0.000881905434653163, 0.09082745015621185, 0.031955067068338394, 0.0685969889163971, -0.01066331285983324, -0.08461244404315948, -0.12050199508666992, -0.026391441002488136, 0.021185139194130898, 0.024879395961761475, 0.02427763119339943, -0.008224260993301868, 0.04730499908328056, -0.08808914572000504, 0.08838704228401184, -0.0947297215461731, 0.09056265652179718, -0.10075250267982483, 0.07402357459068298, -0.013490667566657066, -0.0674903467297554, 0.05880820006132126, 0.058478374034166336, 0.026065606623888016, -0.01414383016526699, -0.06414687633514404, -0.06279778480529785, 0.06505616754293442, -0.09075717628002167, 0.07580757886171341, -0.09054134041070938, 0.028121590614318848, -0.035056862980127335, -0.07969577610492706, -0.045545242726802826, -0.06929207593202591], [0.006167601328343153, -0.05148175358772278, 0.11908532679080963, -0.03997240215539932, 0.015064358711242676, 0.12156197428703308, 0.025865409523248672, -0.01670486107468605, 0.019827984273433685, -0.029166076332330704, -0.015005750581622124, -0.037771157920360565, 0.014517311006784439, 0.0035743711050599813, 0.07165839523077011, 0.08319708704948425, 0.017127154394984245, 0.0907922312617302, -0.005922057665884495, -0.13204295933246613, 0.07202214747667313, -0.06329511851072311, 0.029330873861908913, -0.06541050970554352, 0.07431501150131226, -0.021624034270644188, 0.06913329660892487, -0.04503258690237999, 0.0326041653752327, 0.05356759950518608, 0.07816105335950851, 0.021308138966560364, 0.021115617826581, 0.06644538044929504, 0.08945245295763016, 0.05252156779170036, -0.033209461718797684, 0.002939783502370119, 0.05191902816295624, -0.02043345384299755, -0.05930780991911888, 0.07211782038211823, -0.030903583392500877, 0.04240557178854942, 0.058752164244651794, -0.00957640539854765, 0.07231809198856354, 0.0068405731581151485, -0.11608433723449707, 0.08077070862054825, 0.0017396991606801748, -0.03739335015416145, -0.004837060812860727, 0.057432401925325394, 0.05012654513120651, 0.05261051654815674, -0.07936807721853256, -0.08112335205078125, -0.03594035282731056, -0.040399037301540375, 0.09793850034475327, -0.13002364337444305, -0.06033043563365936, 0.023748332634568214, -0.04763622581958771, 0.09527035802602768, 0.06712687760591507, -0.03439841419458389, 0.0822000578045845, 0.013568049296736717, -0.0030379537492990494, 0.004819291643798351, -0.07925204187631607, 0.13736341893672943, 0.017136715352535248, -0.08245979994535446, 0.04566151276230812, -0.01865166425704956, -0.007310116197913885, 0.01160880271345377, -0.07442448288202286, -0.06880179047584534, 0.039972495287656784, 0.0359950065612793, 0.05425408482551575, 0.0544118694961071, 0.001032617292366922, 0.07280650734901428, 0.051690444350242615, 0.15911322832107544, 0.08186693489551544, 0.07066889107227325, 0.01612139493227005, 0.07292570173740387, -0.0344756655395031, 0.05981573089957237, 0.0795791819691658, 0.07509644329547882, -0.07611662149429321, 0.06564047187566757, -0.043559927493333817, 0.013296233490109444, 0.06976962834596634, 0.0923631340265274, 0.03677758947014809, 0.05683521553874016, 0.004721259698271751, 0.10968724638223648, -0.11868757754564285, 0.035103388130664825, -0.07786410301923752, 0.07911957800388336, 0.0020922322291880846, -0.0490671843290329, -0.04897436499595642, 0.10983237624168396, -0.01073531899601221, 0.10132932662963867, -0.019153866916894913, 0.038333769887685776, 0.03057129681110382, 0.07134206593036652, 0.03156467154622078, -0.0694970041513443, -0.024584757164120674, 0.13441409170627594, -0.02815580740571022, 0.06836656481027603], [0.002350386930629611, -0.02713850513100624, 0.03167674317955971, -0.020321357995271683, 0.0002957055694423616, -0.09727109223604202, 0.040994178503751755, 0.026967165991663933, -0.13412603735923767, 0.021309571340680122, -0.0017006852431222796, -0.05415686219930649, 0.008770772255957127, 0.05138031393289566, -0.0646277517080307, 0.045114949345588684, 0.05113069340586662, -0.027969541028141975, -0.03635281324386597, 0.005594437476247549, -0.036103516817092896, 0.011823631823062897, -0.0465860515832901, -0.0729806050658226, 0.07842159271240234, 0.0897475853562355, 0.014004889875650406, 0.048780396580696106, 0.07739293575286865, 0.02922942489385605, 0.05137878283858299, -0.018318837508559227, 0.016179963946342468, -0.08731479942798615, 0.07171091437339783, -0.0622553676366806, -0.08205471187829971, -0.058938171714544296, -0.05272124707698822, -0.055095475167036057, 0.10084903240203857, 0.032041434198617935, 0.11354297399520874, -0.009436535649001598, 0.0014557826798409224, 0.0823277086019516, -0.07542835175991058, 0.06135202944278717, -0.048847321420907974, -0.09381910413503647, -0.001579972100444138, 0.06050032004714012, -0.05208360031247139, 0.0036787360440939665, -0.06009211018681526, 0.11064103990793228, 0.02061089500784874, -0.11111802607774734, 0.013225204311311245, -0.0746445581316948, 0.017353180795907974, 0.07750742137432098, -0.008061910979449749, -0.05963638797402382, -0.056316886097192764, -0.03249676898121834, 0.0890282541513443, -0.012262731790542603, -0.0542740635573864, 0.00282847392372787, 0.03752477467060089, 0.07853292673826218, -0.0744287520647049, 0.021347779780626297, -0.0580931082367897, 0.11418633908033371, 0.07009804248809814, 0.04213627427816391, -0.11802561581134796, 0.027908338233828545, -0.09922155737876892, -0.03575955703854561, -0.02312322147190571, 0.08380253612995148, 0.025878172367811203, -0.023089809343218803, -0.0981912612915039, 0.02247871831059456, 0.04318704083561897, -0.0007640134426765144, 0.008500062860548496, 0.1018269881606102, -0.04916217178106308, -0.0939885750412941, 0.021701540797948837, 0.08260069787502289, 0.022165611386299133, 0.08838066458702087, -0.09750670194625854, 0.024356605485081673, -0.10556115955114365, 0.06301665306091309, 0.034246236085891724, -0.007616405840963125, -0.06656576693058014, 0.11264010518789291, -0.0787137970328331, -0.07742809504270554, 0.017541853711009026, -0.026626884937286377, 0.02612278051674366, 0.019446000456809998, 0.06550007313489914, -0.026900455355644226, -0.14387540519237518, -0.006167938932776451, 0.013913861475884914, 0.026543941348791122, 0.0577520988881588, -0.0074231792241334915, 0.06120637431740761, 0.0005792630836367607, 0.008142814040184021, -0.03652530536055565, 0.04205010458827019, -0.042316969484090805, 0.033572323620319366, -0.0713907852768898], [0.0359436497092247, -0.015571998432278633, 0.10026197135448456, 0.0740930512547493, -0.008560060523450375, -0.03580670431256294, -0.025211479514837265, -0.06821399927139282, 0.05850059539079666, 0.04151267185807228, 0.044633444398641586, -0.09225136786699295, -0.14376239478588104, 0.010859409347176552, 0.11882993578910828, 0.10436715930700302, -0.03331183269619942, 0.020608194172382355, 0.05326557904481888, 0.018557937815785408, 0.029117876663804054, 0.07994991540908813, 0.055730193853378296, 0.10272425413131714, 0.049508508294820786, -0.05720369890332222, -0.13923820853233337, 0.10443244874477386, -0.026989350095391273, 0.07744869589805603, 0.02540660835802555, 0.1348557323217392, 0.03380570933222771, -0.026190152391791344, 0.07038585096597672, 0.018594801425933838, 0.06059485673904419, 0.07061411440372467, -0.027781987562775612, 0.04199233278632164, -0.15349340438842773, -0.046673163771629333, -0.00018028225167654455, 0.02925386093556881, 0.0395837277173996, 0.057798758149147034, -0.022541388869285583, 0.08967652171850204, -0.031825002282857895, 0.03835390880703926, 0.033175110816955566, 0.014918936416506767, -0.09666215628385544, 0.07372340559959412, -0.08274035900831223, -0.031056592240929604, 0.053107600659132004, 0.03877147287130356, 0.09430403262376785, -0.0326647013425827, 0.04399803653359413, -0.03767545521259308, -0.014925806783139706, 0.04516545683145523, 0.12587516009807587, -0.04723107069730759, 0.01216068398207426, 0.05434376001358032, -0.003370471764355898, -0.038799919188022614, 0.05634339898824692, -0.033473655581474304, 0.06076076999306679, 0.09199686348438263, 0.03854097053408623, -0.05501729995012283, -0.14502102136611938, -0.005247175693511963, -0.025790443643927574, 0.04149599000811577, 0.06095902994275093, 0.04843103140592575, -0.004244221840053797, 0.08490226417779922, -0.035942427814006805, -0.006038423161953688, -0.0088035948574543, 0.10620518773794174, -0.04169785603880882, -0.06451582163572311, -0.05404859781265259, 0.025792764499783516, 0.015402914956212044, 0.0019201639806851745, -0.011437230743467808, 0.0848955363035202, 0.008261524140834808, -0.006046982482075691, 0.10681567341089249, 0.07145317643880844, 0.07868882268667221, -0.04771863669157028, -0.10036223381757736, 0.019897760823369026, -0.07739665359258652, 0.10420897603034973, -0.05919928476214409, 0.06760701537132263, -0.1094878613948822, 0.04432176426053047, 0.03385235369205475, 0.004328490700572729, 0.02692236751317978, 0.07977421581745148, -0.003967242315411568, -0.047007206827402115, -0.04659627005457878, -0.05896667763590813, 0.062244486063718796, 0.037260398268699646, -0.013736575841903687, -0.09621001034975052, 0.04023231938481331, -0.10474000871181488, -0.06793873757123947, -0.025626322254538536, -0.02005750499665737, 0.008158864453434944], [-0.05649644881486893, 0.005061292089521885, -0.02587343379855156, 0.02281498908996582, 0.0393059179186821, -0.1308116465806961, -0.048800259828567505, 0.06645959615707397, 0.028907740488648415, -0.06316918134689331, 0.010340803302824497, 0.020216789096593857, -0.02984066680073738, -0.0747540071606636, -0.011201513931155205, 0.014815375208854675, 0.017139021307229996, 0.0538993738591671, 0.035995230078697205, -0.08272475004196167, 0.061209212988615036, 0.0798296257853508, -0.01515710074454546, -0.04954283684492111, -0.02837899886071682, 0.05826155096292496, -0.031043056398630142, 0.09047070145606995, 0.07106661051511765, 0.013972504995763302, 0.033592984080314636, -0.06093085929751396, 0.11885236948728561, -0.08405689150094986, 0.10955220460891724, 0.006248875986784697, -0.007529357448220253, -0.02768789231777191, -0.00039552358794026077, -0.07621783763170242, -0.008077448233962059, -0.0960388034582138, -0.1433250457048416, 0.0495498925447464, -0.015865491703152657, -0.08195529878139496, -0.028993802145123482, 0.0703202411532402, 0.029503129422664642, 0.07396156340837479, 0.15613195300102234, 0.017689533531665802, 0.01836140640079975, -0.019377917051315308, -0.008496107533574104, 0.014858375303447247, -0.0009398561669513583, -0.10925406962633133, -0.097600556910038, -0.0005208515794947743, -0.012240731157362461, -0.05045939236879349, 0.04807461053133011, -0.04530327767133713, 0.009126280434429646, -0.016182798892259598, 0.07464303076267242, -0.07245733588933945, -0.10304874181747437, -0.0010577152715995908, 0.013197514228522778, -0.013800328597426414, -0.09148944169282913, 0.054704222828149796, -0.052421264350414276, 0.09723188728094101, -0.04696180298924446, -0.011864240281283855, -0.01574503257870674, 0.05693923309445381, -0.02184356190264225, -0.12150208652019501, 0.0008717193850316107, 0.09213759005069733, -0.02212413214147091, 0.07327396422624588, -0.06362589448690414, -0.007915381342172623, 0.04965607821941376, 0.04992503300309181, 0.027790246531367302, -0.10464074462652206, -8.016161154955626e-05, -0.0069481064565479755, 0.069590263068676, 0.14263908565044403, 0.07963396608829498, 0.025360170751810074, 0.007807798217982054, -0.001978249754756689, 0.00026492655160836875, 0.020549921318888664, -0.000592252123169601, -0.0013527837581932545, 0.054552774876356125, -0.009119071066379547, -0.05146883428096771, 0.01759164221584797, -0.013991395011544228, -0.05734952166676521, 0.04476926848292351, 0.09485603868961334, 0.009504606015980244, 0.004442594014108181, -0.07659479975700378, -0.006002449430525303, 0.043587811291217804, 0.00990533921867609, -0.005473998840898275, -0.06305322051048279, 0.014510582201182842, -0.03710998594760895, 0.03211086243391037, -0.0668841078877449, -0.03927107900381088, 0.04020722582936287, -0.07135264575481415, -0.02053822949528694], [-0.030866803601384163, 0.04675121232867241, -0.08622412383556366, -0.06098747253417969, -0.036867041140794754, 0.03998737409710884, -0.023522881790995598, 0.011527908965945244, 0.10705509036779404, 0.09403921663761139, -0.01518307626247406, -0.024943340569734573, 0.09774991869926453, -0.018979351967573166, -0.04106588661670685, 0.029122482985258102, -0.034412581473588943, -0.10042739659547806, -0.053009890019893646, -0.007864284329116344, 0.014576476998627186, 0.012425171211361885, -0.005619249306619167, 0.09122463315725327, -0.1456824392080307, 0.02790638990700245, -0.035969190299510956, -0.030695868656039238, 0.0039036408998072147, -0.06914369016885757, -0.09143286943435669, -0.010891676880419254, 0.025317257270216942, -0.035657428205013275, 0.028431357815861702, -0.10847727209329605, -0.0065702288411557674, 0.029160423204302788, 0.09666167944669724, 0.008214850910007954, 0.05353417992591858, 0.006254522129893303, -0.02501682937145233, -0.05589320510625839, -0.10143095254898071, 0.0006656695622950792, -0.03406964987516403, 0.01475789025425911, 0.08378873765468597, -0.1326543390750885, -0.05435303971171379, -0.111251600086689, -0.03980955109000206, 0.0615311898291111, 0.04529702290892601, -0.012233661487698555, 0.023447072133421898, -0.019698888063430786, 0.09256905317306519, 0.07859095185995102, 0.008514552377164364, -0.009030567482113838, 0.09027177840471268, -0.08843038231134415, -0.05902800336480141, -0.04699217528104782, 0.14128443598747253, 0.08719179034233093, 0.04760903865098953, -0.02304697409272194, -0.03253141790628433, -0.07869181036949158, -0.06723973900079727, 0.09957299381494522, -0.08901914954185486, -0.005888315383344889, -0.08603395521640778, 0.02485983818769455, -0.06631150841712952, 0.08294468373060226, -0.016500450670719147, -0.012834854423999786, -0.10915729403495789, 0.02435625158250332, -0.03269388899207115, -0.05471837520599365, -0.033893514424562454, 0.08360569179058075, -0.046973396092653275, 0.1061939001083374, 0.09021927416324615, -0.0008533644140698016, 0.1043858751654625, 0.004165299702435732, -0.010775482282042503, 0.0427093505859375, -0.0655643418431282, 0.003615414025261998, -0.11109442263841629, -0.004541780799627304, 0.008367510512471199, 0.041528213769197464, -0.08787022531032562, -0.10035355389118195, -0.17070859670639038, -0.13090085983276367, 0.040470678359270096, -0.045378830283880234, -0.07712546736001968, 0.09719531983137131, -0.03337157890200615, 0.041705891489982605, 0.047250572592020035, 0.09647762030363083, -0.03356660157442093, 0.038979899138212204, 0.010429671965539455, -0.08444692194461823, -0.042554501444101334, 0.17752930521965027, -0.04326275736093521, 0.015150001272559166, 0.05240228772163391, -0.017256084829568863, 0.07470590621232986, -0.007878298871219158, 0.061905115842819214, -0.0512092188000679], [-0.037326015532016754, -0.03357694298028946, 0.08110902458429337, -0.03433070331811905, -0.05920084938406944, -0.017773274332284927, 0.034775570034980774, -0.03478563204407692, -0.019678134471178055, -0.0014103531138971448, 0.09584631770849228, -0.05530518293380737, 0.052042946219444275, 0.010470678098499775, -0.0765046551823616, 0.07561640441417694, 0.11087913066148758, -0.0617680698633194, 0.04114449769258499, -0.12982754409313202, 0.006794643122702837, 0.012979005463421345, 0.03989528864622116, 0.0326320044696331, 0.027468018233776093, -0.10717318207025528, -0.04214036837220192, -0.07683289051055908, 0.010381072759628296, 0.04262562841176987, 0.05906464532017708, -0.10348562151193619, -0.11164746433496475, -0.04499496892094612, -0.024824129417538643, 0.013568728230893612, -0.1582106649875641, -0.0012557816226035357, -0.003140130313113332, -0.07690352201461792, -0.02678920142352581, -0.04358048364520073, 0.052333053201436996, -0.01874450221657753, 0.07279390096664429, -0.02107909880578518, -0.14677822589874268, -0.06483396887779236, 0.034339696168899536, 0.04259038344025612, -0.019940398633480072, -0.025934014469385147, 0.033412761986255646, -0.04942353069782257, -0.0037574274465441704, -0.07800457626581192, 0.1115582138299942, -0.04864194989204407, 0.08650161325931549, -0.09615858644247055, 0.1131424680352211, -0.08293147385120392, -0.11520078033208847, -0.051734235137701035, -0.024661166593432426, -0.0905752032995224, 0.015266372822225094, -0.031774114817380905, -0.048210326582193375, 0.06149958074092865, -0.04376562312245369, -0.09233461320400238, 0.06619799137115479, 0.009404446929693222, 0.027571815997362137, -0.008982227183878422, -0.095046766102314, -0.10377300530672073, -0.07890541851520538, 0.0006556909647770226, -0.043561749160289764, 0.04434525966644287, 0.05097968876361847, -0.02581750974059105, 0.0037371362559497356, 0.04260685667395592, -0.05864410474896431, -0.07019799202680588, 0.008996927179396152, -0.06442708522081375, -0.034486107528209686, 0.04444868862628937, 0.03559204936027527, 0.09213759750127792, 0.0756542831659317, -0.1530209332704544, 0.057745132595300674, 0.006307682022452354, -0.08786673843860626, -0.02552773617208004, 0.10734464973211288, -0.007193953730165958, -0.040306467562913895, -0.0669398382306099, -0.04584012180566788, -0.042624324560165405, 0.05516470596194267, -0.12731903791427612, 0.0912071093916893, -0.04106297343969345, -0.03843891620635986, 0.09307294338941574, -0.05271327495574951, 0.020820071920752525, 0.0013168713776394725, -0.05916568264365196, -0.09301674365997314, -0.017501365393400192, 0.013934037648141384, 0.038833923637866974, -0.22263677418231964, 0.09894108772277832, -0.10065822303295135, -0.04134073108434677, -0.049852002412080765, -0.08685499429702759,